{"learner":{"attributes":{"best_iteration":"99","best_ntree_limit":"100","scikit_learn":"{\"n_estimators\": 100, \"objective\": \"reg:squarederror\", \"max_depth\": null, \"max_leaves\": null, \"max_bin\": null, \"grow_policy\": null, \"learning_rate\": 0.05, \"verbosity\": null, \"booster\": null, \"tree_method\": null, \"gamma\": null, \"min_child_weight\": null, \"max_delta_step\": null, \"subsample\": null, \"sampling_method\": null, \"colsample_bytree\": null, \"colsample_bylevel\": null, \"colsample_bynode\": null, \"reg_alpha\": null, \"reg_lambda\": null, \"scale_pos_weight\": null, \"base_score\": null, \"missing\": NaN, \"num_parallel_tree\": null, \"random_state\": null, \"n_jobs\": null, \"monotone_constraints\": null, \"interaction_constraints\": null, \"importance_type\": null, \"gpu_id\": null, \"validate_parameters\": null, \"predictor\": null, \"enable_categorical\": false, \"feature_types\": null, \"max_cat_to_onehot\": null, \"max_cat_threshold\": null, \"eval_metric\": null, \"early_stopping_rounds\": null, \"callbacks\": null, \"_estimator_type\": \"regressor\"}"},"feature_names":["fixed acidity","volatile acidity","citric acid","residual sugar","chlorides","free sulfur dioxide","total sulfur dioxide","density","pH","sulphates","alcohol"],"feature_types":["float","float","float","float","float","float","float","float","float","float","float"],"gradient_booster":{"model":{"gbtree_model_param":{"num_parallel_tree":"1","num_trees":"100","size_leaf_vector":"0"},"tree_info":[0,0,0,0,0,0,0,0,0,0,0,0,0,0,0,0,0,0,0,0,0,0,0,0,0,0,0,0,0,0,0,0,0,0,0,0,0,0,0,0,0,0,0,0,0,0,0,0,0,0,0,0,0,0,0,0,0,0,0,0,0,0,0,0,0,0,0,0,0,0,0,0,0,0,0,0,0,0,0,0,0,0,0,0,0,0,0,0,0,0,0,0,0,0,0,0,0,0,0,0],"trees":[{"base_weights":[5.147239E0,4.8624496E0,5.577044E0,4.89375E0,5.782427E0,4.924051E0,1.25E0],"categories":[],"categories_nodes":[],"categories_segments":[],"categories_sizes":[],"default_left":[1,0,1,1,0,0,0],"id":0,"left_children":[1,-1,3,5,-1,-1,-1],"loss_changes":[7.2640625E1,0E0,1.6329102E1,2.6776123E0,0E0,0E0,0E0],"parents":[2147483647,0,0,2,2,3,3],"right_children":[2,-1,4,6,-1,-1,-1],"split_conditions":[1.0525E1,2.4312249E-1,5.85E-1,1.455E0,2.8912136E-1,2.4620254E-1,6.25E-2],"split_indices":[10,0,9,1,0,0,0],"split_type":[0,0,0,0,0,0,0],"sum_hessian":[8.14E2,4.97E2,3.17E2,7.9E1,2.38E2,7.8E1,1E0],"tree_param":{"num_deleted":"0","num_feature":"11","num_nodes":"7","size_leaf_vector":"0"}},{"base_weights":[4.890909E0,4.6198153E0,5.3000717E0,5.3605304E0,3.4692705E0,4.77135E0,5.5150695E0],"categories":[],"categories_nodes":[],"categories_segments":[],"categories_sizes":[],"default_left":[1,0,1,1,0,0,0],"id":1,"left_children":[1,-1,3,5,-1,-1,-1],"loss_changes":[6.5916016E1,0E0,1.6601562E1,1.5478516E0,0E0,0E0,0E0],"parents":[2147483647,0,0,2,2,3,3],"right_children":[2,-1,4,6,-1,-1,-1],"split_conditions":[1.0525E1,2.3099077E-1,8.7E-1,5.85E-1,1.7346352E-1,2.385675E-1,2.7575347E-1],"split_indices":[10,0,1,9,0,0,0],"split_type":[0,0,0,0,0,0,0],"sum_hessian":[8.14E2,4.97E2,3.17E2,3.05E2,1.2E1,7E1,2.35E2],"tree_param":{"num_deleted":"0","num_feature":"11","num_nodes":"7","size_leaf_vector":"0"}},{"base_weights":[4.647491E0,4.2677937E0,4.9130063E0,4.2743487E0,1.0129434E0,4.503021E0,5.1584535E0,4.515189E0,1.1320182E0],"categories":[],"categories_nodes":[],"categories_segments":[],"categories_sizes":[],"default_left":[1,1,1,0,0,1,0,0,0],"id":2,"left_children":[1,3,5,-1,-1,7,-1,-1,-1],"loss_changes":[6.119922E1,2.9887695E0,2.4368164E1,0E0,0E0,2.477539E0,0E0,0E0,0E0],"parents":[2147483647,0,0,1,1,2,2,5,5],"right_children":[2,4,6,-1,-1,8,-1,-1,-1],"split_conditions":[9.975E0,9.924999E0,6.15E-1,2.1371745E-1,5.064717E-2,1.455E0,2.5792268E-1,2.2575946E-1,5.660091E-2],"split_indices":[10,10,9,0,0,1,0,0,0],"split_type":[0,0,0,0,0,0,0,0,0],"sum_hessian":[8.14E2,3.42E2,4.72E2,3.41E2,1E0,1.84E2,2.88E2,1.83E2,1E0],"tree_param":{"num_deleted":"0","num_feature":"11","num_nodes":"9","size_leaf_vector":"0"}},{"base_weights":[4.416104E0,4.1487827E0,4.764684E0,4.4388065E0,4.0131702E0,4.820847E0,3.084474E0,9.0608466E-1,4.0198603E0,4.312202E0,4.95898E0],"categories":[],"categories_nodes":[],"categories_segments":[],"categories_sizes":[],"default_left":[1,1,1,0,1,1,0,0,0,0,0],"id":3,"left_children":[1,3,5,-1,7,9,-1,-1,-1,-1,-1],"loss_changes":[5.6176758E1,6.328125E-1,1.7874512E1,0E0,3.2172852E0,2.0830078E0,0E0,0E0,0E0,0E0,0E0],"parents":[2147483647,0,0,1,1,2,2,4,4,5,5],"right_children":[2,4,6,-1,8,10,-1,-1,-1,-1,-1],"split_conditions":[1.045E1,4.5499998E-1,8.7E-1,2.2194032E-1,8.7E0,5.85E-1,1.5422371E-1,4.5304235E-2,2.0099302E-1,2.156101E-1,2.47949E-1],"split_indices":[10,1,1,0,10,9,0,0,0,0,0],"split_type":[0,0,0,0,0,0,0,0,0,0,0],"sum_hessian":[8.14E2,4.68E2,3.46E2,1.39E2,3.29E2,3.33E2,1.3E1,1E0,3.28E2,7.8E1,2.55E2],"tree_param":{"num_deleted":"0","num_feature":"11","num_nodes":"11","size_leaf_vector":"0"}},{"base_weights":[4.196631E0,4.018896E0,4.692749E0,3.8230188E0,4.283316E0,4.7274795E0,2.3302479E0,3.8292146E0,8.055881E-1,8.8343257E-1,3.8350077E0,3.8400266E0,1.0266058E0],"categories":[],"categories_nodes":[],"categories_segments":[],"categories_sizes":[],"default_left":[1,1,1,1,0,0,0,1,0,0,1,0,0],"id":4,"left_children":[1,3,5,7,-1,-1,-1,9,-1,-1,11,-1,-1],"loss_changes":[5.300586E1,1.5063477E1,6.132324E0,3.6079102E0,0E0,0E0,0E0,2.7045898E0,0E0,0E0,1.0756836E0,0E0,0E0],"parents":[2147483647,0,0,1,1,2,2,3,3,7,7,10,10],"right_children":[2,4,6,8,-1,-1,-1,10,-1,-1,12,-1,-1],"split_conditions":[1.115E1,6.35E-1,9.25E-1,1.0007E0,2.141658E-1,2.3637398E-1,1.16512395E-1,8.7E0,4.0279407E-2,4.4171628E-2,1.455E0,1.9200133E-1,5.1330294E-2],"split_indices":[10,9,1,7,0,0,0,10,0,0,1,0,0],"split_type":[0,0,0,0,0,0,0,0,0,0,0,0,0],"sum_hessian":[8.14E2,6.06E2,2.08E2,3.57E2,2.49E2,2.04E2,4E0,3.56E2,1E0,1E0,3.55E2,3.54E2,1E0],"tree_param":{"num_deleted":"0","num_feature":"11","num_nodes":"13","size_leaf_vector":"0"}},{"base_weights":[3.9878976E0,3.6511726E0,4.223645E0,3.6572223E0,7.911226E-1,3.9100792E0,4.483122E0,3.9187136E0,1.0009408E0,4.490988E0,1.2543781E0],"categories":[],"categories_nodes":[],"categories_segments":[],"categories_sizes":[],"default_left":[1,1,1,0,0,1,1,0,0,0,0],"id":5,"left_children":[1,3,5,-1,-1,7,9,-1,-1,-1,-1],"loss_changes":[4.927539E1,3.041504E0,2.0954102E1,0E0,0E0,1.6538086E0,7.6708984E-1,0E0,0E0,0E0,0E0],"parents":[2147483647,0,0,1,1,2,2,5,5,6,6],"right_children":[2,4,6,-1,-1,8,10,-1,-1,-1,-1],"split_conditions":[9.975E0,9.924999E0,6.35E-1,1.8286112E-1,3.955613E-2,1.455E0,9.25E-1,1.9593568E-1,5.004704E-2,2.245494E-1,6.2718906E-2],"split_indices":[10,10,9,0,0,1,1,0,0,0,0],"split_type":[0,0,0,0,0,0,0,0,0,0,0],"sum_hessian":[8.14E2,3.42E2,4.72E2,3.41E2,1E0,2.21E2,2.51E2,2.2E2,1E0,2.5E2,1E0],"tree_param":{"num_deleted":"0","num_feature":"11","num_nodes":"11","size_leaf_vector":"0"}},{"base_weights":[3.78943E0,3.6504436E0,4.344262E0,3.4521363E0,3.9074557E0,3.4575825E0,6.940179E-1,4.239571E0,3.6729057E0,7.6991624E-1,3.4626558E0,3.4666634E0,9.759172E-1],"categories":[],"categories_nodes":[],"categories_segments":[],"categories_sizes":[],"default_left":[1,1,0,1,1,1,0,0,0,0,1,0,0],"id":6,"left_children":[1,3,-1,5,7,9,-1,-1,-1,-1,11,-1,-1],"loss_changes":[4.6989258E1,2.0046875E1,0E0,3.3085938E0,6.161621E0,2.5019531E0,0E0,0E0,0E0,0E0,3.8378906E-1,0E0,0E0],"parents":[2147483647,0,0,1,1,3,3,4,4,5,5,10,10],"right_children":[2,4,-1,6,8,10,-1,-1,-1,-1,12,-1,-1],"split_conditions":[1.145E1,6.35E-1,2.1721311E-1,1.0007E0,4.05E-1,8.7E0,3.4700897E-2,2.1197855E-1,1.836453E-1,3.8495813E-2,1.455E0,1.7333317E-1,4.879586E-2],"split_indices":[10,9,0,7,1,10,0,0,0,0,1,0,0],"split_type":[0,0,0,0,0,0,0,0,0,0,0,0,0],"sum_hessian":[8.14E2,6.57E2,1.57E2,3.79E2,2.78E2,3.78E2,1E0,1.08E2,1.7E2,1E0,3.77E2,3.76E2,1E0],"tree_param":{"num_deleted":"0","num_feature":"11","num_nodes":"13","size_leaf_vector":"0"}},{"base_weights":[3.6010725E0,3.269031E0,3.8047922E0,3.5082645E0,4.059635E0,3.5990052E0,2.935972E0,4.066521E0,1.131196E0,9.841087E-1,3.6071591E0,2.978313E0,6.8467796E-1],"categories":[],"categories_nodes":[],"categories_segments":[],"categories_sizes":[],"default_left":[1,0,1,1,1,1,1,0,0,0,0,0,0],"id":7,"left_children":[1,-1,3,5,7,9,11,-1,-1,-1,-1,-1,-1],"loss_changes":[4.2692383E1,0E0,2.3466309E1,1.7927246E0,6.8310547E-1,7.36084E-1,1.5830383E0,0E0,0E0,0E0,0E0,0E0,0E0],"parents":[2147483647,0,0,2,2,3,3,4,4,5,5,6,6],"right_children":[2,-1,4,6,8,10,12,-1,-1,-1,-1,-1,-1],"split_conditions":[9.85E0,1.6345155E-1,6.35E-1,7.55E-1,9.25E-1,7.5E0,6.25E-1,2.0332606E-1,5.65598E-2,4.9205434E-2,1.8035796E-1,1.4891565E-1,3.4233898E-2],"split_indices":[10,0,9,1,1,6,9,0,0,0,0,0,0],"split_type":[0,0,0,0,0,0,0,0,0,0,0,0,0],"sum_hessian":[8.14E2,3.16E2,4.98E2,2.37E2,2.61E2,2E2,3.7E1,2.6E2,1E0,1E0,1.99E2,3.6E1,1E0],"tree_param":{"num_deleted":"0","num_feature":"11","num_nodes":"13","size_leaf_vector":"0"}},{"base_weights":[3.4220448E0,3.2931287E0,3.9372647E0,3.6510613E0,3.1659281E0,3.150643E0,3.827921E0,3.2079978E0,2.5607455E0,6.689426E-1,3.2120988E0,3.0391297E0,3.343687E0],"categories":[],"categories_nodes":[],"categories_segments":[],"categories_sizes":[],"default_left":[1,1,0,1,1,0,0,1,0,0,1,0,0],"id":8,"left_children":[1,3,-1,5,7,-1,-1,9,-1,-1,11,-1,-1],"loss_changes":[4.1166016E1,1.8399414E1,0E0,2.6313477E0,4.336426E0,0E0,0E0,2.6103516E0,0E0,0E0,2.1728516E-1,0E0,0E0],"parents":[2147483647,0,0,1,1,3,3,4,4,7,7,10,10],"right_children":[2,4,-1,6,8,-1,-1,10,-1,-1,12,-1,-1],"split_conditions":[1.145E1,4.05E-1,1.9686323E-1,6.15E-1,8.425E-1,1.5753216E-1,1.9139604E-1,8.7E0,1.2803727E-1,3.3447128E-2,9.75E0,1.5195648E-1,1.6718435E-1],"split_indices":[10,1,0,9,1,0,0,10,0,0,10,0,0],"split_type":[0,0,0,0,0,0,0,0,0,0,0,0,0],"sum_hessian":[8.14E2,6.57E2,1.57E2,1.65E2,4.92E2,4.8E1,1.17E2,4.56E2,3.6E1,1E0,4.55E2,2.07E2,2.48E2],"tree_param":{"num_deleted":"0","num_feature":"11","num_nodes":"13","size_leaf_vector":"0"}},{"base_weights":[3.252202E0,3.106156E0,3.6608033E0,2.9513395E0,3.3154287E0,3.699757E0,2.0081775E0,2.9566991E0,5.1896346E-1,3.4438186E0,2.9360864E0,3.418938E0,3.9657474E0,6.52219E-1,2.9613402E0,2.9537818E0,8.57548E-1,2.9651015E0,8.130429E-1,8.57548E-1,2.9719977E0,2.9904006E0,8.695077E-1],"categories":[],"categories_nodes":[],"categories_segments":[],"categories_sizes":[],"default_left":[1,1,1,1,1,1,0,1,0,0,1,0,0,0,1,1,0,0,0,0,1,0,0],"id":9,"left_children":[1,3,5,7,9,11,-1,13,-1,-1,15,-1,-1,-1,17,19,-1,-1,-1,-1,21,-1,-1],"loss_changes":[3.726367E1,9.881348E0,6.0249023E0,3.1325684E0,2.0644531E0,1.6044922E0,0E0,1.887207E0,0E0,0E0,4.1625977E-2,0E0,0E0,0E0,4.6557617E-1,8.6120605E-2,0E0,0E0,0E0,0E0,3.0883789E-2,0E0,0E0],"parents":[2147483647,0,0,1,1,2,2,3,3,4,4,5,5,7,7,10,10,14,14,15,15,20,20],"right_children":[2,4,6,8,10,12,-1,14,-1,-1,16,-1,-1,-1,18,20,-1,-1,-1,-1,22,-1,-1],"split_conditions":[1.115E1,6.35E-1,8.7E-1,1.0007E0,5.45E1,6.75E-1,1.00408874E-1,8.7E0,2.5948172E-2,1.7219093E-1,8.4000003E-1,1.709469E-1,1.9828737E-1,3.261095E-2,1.455E0,1.55E0,4.2877402E-2,1.4825508E-1,4.0652145E-2,4.2877402E-2,3.565E0,1.4952002E-1,4.3475386E-2],"split_indices":[10,9,1,7,6,9,0,10,0,0,2,0,0,0,1,3,0,0,0,0,8,0,0],"split_type":[0,0,0,0,0,0,0,0,0,0,0,0,0,0,0,0,0,0,0,0,0,0,0],"sum_hessian":[8.14E2,6.06E2,2.08E2,3.57E2,2.49E2,2.02E2,6E0,3.56E2,1E0,1.8E2,6.9E1,1.05E2,9.7E1,1E0,3.55E2,6.8E1,1E0,3.54E2,1E0,1E0,6.7E1,6.6E1,1E0],"tree_param":{"num_deleted":"0","num_feature":"11","num_nodes":"23","size_leaf_vector":"0"}},{"base_weights":[3.091025E0,3.4189174E0,2.9223096E0,2.8430345E0,3.5692015E0,2.725931E0,3.0906181E0,2.7325187E0,5.0984126E-1,3.1351156E0,2.2539282E0,2.7491133E0,1.3396832E0,6.3591355E-1,2.7549295E0],"categories":[],"categories_nodes":[],"categories_segments":[],"categories_sizes":[],"default_left":[1,1,1,0,0,1,1,1,0,0,0,1,0,0,0],"id":10,"left_children":[1,3,5,-1,-1,7,9,11,-1,-1,-1,13,-1,-1,-1],"loss_changes":[3.5094727E1,1.3306152E1,9.588867E0,0E0,0E0,2.40271E0,3.581787E0,2.3034668E0,0E0,0E0,0E0,1.3822021E0,0E0,0E0,0E0],"parents":[2147483647,0,0,1,1,2,2,5,5,6,6,7,7,11,11],"right_children":[2,4,6,-1,-1,8,10,12,-1,-1,-1,14,-1,-1,-1],"split_conditions":[4.25E-1,9.65E0,9.975E0,1.4215173E-1,1.7846008E-1,9.924999E0,8.7E-1,1.14E1,2.5492063E-2,1.5675579E-1,1.1269641E-1,8.7E0,6.698416E-2,3.1795677E-2,1.3774648E-1],"split_indices":[1,10,10,0,0,10,1,0,0,0,0,10,0,0,0],"split_type":[0,0,0,0,0,0,0,0,0,0,0,0,0,0,0],"sum_hessian":[8.14E2,2.7E2,5.44E2,6E1,2.1E2,2.59E2,2.85E2,2.58E2,1E0,2.68E2,1.7E1,2.54E2,4E0,1E0,2.53E2],"tree_param":{"num_deleted":"0","num_feature":"11","num_nodes":"15","size_leaf_vector":"0"}},{"base_weights":[2.9375193E0,2.8234978E0,3.3937767E0,3.1399946E0,2.7112017E0,3.4028187E0,9.870901E-1,2.5982697E0,3.2700238E0,2.7485352E0,2.1768074E0,3.4118376E0,9.979423E-1,7.060363E-1,2.6312196E0,6.2001574E-1,2.7518432E0,3.1352215E0,3.6910114E0,2.6016922E0,2.866219E0],"categories":[],"categories_nodes":[],"categories_segments":[],"categories_sizes":[],"default_left":[1,1,1,1,1,1,0,1,0,1,0,1,0,0,0,0,1,0,0,0,0],"id":11,"left_children":[1,3,5,7,9,11,-1,13,-1,15,-1,17,-1,-1,-1,-1,19,-1,-1,-1,-1],"loss_changes":[3.2816895E1,1.4873047E1,7.9589844E-2,3.1967773E0,3.8527832E0,3.6621094E-4,0E0,4.491577E-1,0E0,1.5117188E0,0E0,4.7485352E-1,0E0,0E0,0E0,0E0,3.7402344E-1,0E0,0E0,0E0,0E0],"parents":[2147483647,0,0,1,1,2,2,3,3,4,4,5,5,7,7,9,9,11,11,16,16],"right_children":[2,4,6,8,10,12,-1,14,-1,16,-1,18,-1,-1,-1,-1,20,-1,-1,-1,-1],"split_conditions":[1.145E1,4.05E-1,1.485E1,5.85E-1,8.425E-1,7.75E-1,4.9354505E-2,7.5E0,1.6350119E-1,8.7E0,1.0884037E-1,6.85E-1,4.9897116E-2,3.5301816E-2,1.3156098E-1,3.1000787E-2,9.75E0,1.5676108E-1,1.8455057E-1,1.3008462E-1,1.4331095E-1],"split_indices":[10,1,0,9,1,2,0,6,0,10,0,9,0,0,0,0,10,0,0,0,0],"split_type":[0,0,0,0,0,0,0,0,0,0,0,0,0,0,0,0,0,0,0,0,0],"sum_hessian":[8.14E2,6.57E2,1.57E2,1.65E2,4.92E2,1.56E2,1E0,3.6E1,1.29E2,4.56E2,3.6E1,1.55E2,1E0,1E0,3.5E1,1E0,4.55E2,8.4E1,7.1E1,2.07E2,2.48E2],"tree_param":{"num_deleted":"0","num_feature":"11","num_nodes":"21","size_leaf_vector":"0"}},{"base_weights":[2.7920964E0,3.2016113E0,2.676757E0,2.6117153E0,3.3161533E0,2.4802847E0,2.8199964E0,3.3260207E0,9.6241283E-1,6.045154E-1,2.4848576E0,2.5340688E0,2.9625225E0,6.883248E-1,2.4888582E0,1.4697682E0,2.5743642E0,2.4927876E0,7.0219374E-1,7.189442E-1,2.5837567E0],"categories":[],"categories_nodes":[],"categories_segments":[],"categories_sizes":[],"default_left":[1,1,1,0,1,1,1,0,0,0,1,1,0,0,1,0,1,0,0,0,0],"id":12,"left_children":[1,3,5,-1,7,9,11,-1,-1,-1,13,15,-1,-1,17,-1,19,-1,-1,-1,-1],"loss_changes":[2.9924805E1,3.0958252E0,1.1073242E1,0E0,9.70459E-2,8.909912E-1,7.326416E0,0E0,0E0,0E0,2.8503418E-1,1.7056885E0,0E0,0E0,1.9433594E-1,0E0,2.6849365E-1,0E0,0E0,0E0,0E0],"parents":[2147483647,0,0,1,1,2,2,4,4,5,5,6,6,10,10,11,11,14,14,16,16],"right_children":[2,4,6,-1,8,10,12,-1,-1,-1,14,16,-1,-1,18,-1,20,-1,-1,-1,-1],"split_conditions":[3.75E-1,9.75E0,9.85E0,1.3058577E-1,1.46E1,8.45E0,5.85E-1,1.6630104E-1,4.8120644E-2,3.0225769E-2,8.5E0,1.05E1,1.4812613E-1,3.441624E-2,8.8E-1,7.348841E-2,5.2E0,1.24639384E-1,3.5109688E-2,3.594721E-2,1.2918784E-1],"split_indices":[1,10,10,0,0,10,9,0,0,0,6,6,0,0,2,0,0,0,0,0,0],"split_type":[0,0,0,0,0,0,0,0,0,0,0,0,0,0,0,0,0,0,0,0,0],"sum_hessian":[8.14E2,1.73E2,6.41E2,3.2E1,1.41E2,2.78E2,3.63E2,1.4E2,1E0,1E0,2.77E2,1.27E2,2.36E2,1E0,2.76E2,6E0,1.21E2,2.75E2,1E0,1E0,1.2E2],"tree_param":{"num_deleted":"0","num_feature":"11","num_nodes":"21","size_leaf_vector":"0"}},{"base_weights":[2.6536646E0,2.5478106E0,3.0777051E0,2.836771E0,2.4453454E0,3.2596035E0,2.7596107E0,2.4155486E0,2.9876451E0,2.4800215E0,1.9509609E0,3.274315E0,9.3835247E-1,6.5164113E-1,2.4387207E0,3.150244E0,2.5120463E0,5.894025E-1,2.4828749E0,2.4853225E0,6.8463886E-1],"categories":[],"categories_nodes":[],"categories_segments":[],"categories_sizes":[],"default_left":[1,1,1,1,1,1,0,1,1,1,0,0,0,0,0,0,0,0,1,0,0],"id":13,"left_children":[1,3,5,7,9,11,-1,13,15,17,-1,-1,-1,-1,-1,-1,-1,-1,19,-1,-1],"loss_changes":[2.874121E1,1.254541E1,1.4685059E-1,3.3327637E0,3.6135254E0,1.7163086E-1,0E0,4.1363525E-1,1.2115479E0,1.0019531E0,0E0,0E0,0E0,0E0,0E0,0E0,0E0,0E0,3.0541992E-1,0E0,0E0],"parents":[2147483647,0,0,1,1,2,2,3,3,4,4,5,5,7,7,8,8,9,9,18,18],"right_children":[2,4,6,8,10,12,-1,14,16,18,-1,-1,-1,-1,-1,-1,-1,-1,20,-1,-1],"split_conditions":[1.145E1,4.05E-1,4.95E-1,6.15E-1,8.425E-1,1.485E1,1.3798054E-1,7.5E0,4.8E1,8.7E0,9.7548045E-2,1.6371576E-1,4.6917625E-2,3.2582056E-2,1.2193604E-1,1.575122E-1,1.2560232E-1,2.9470125E-2,8.8E-1,1.24266125E-1,3.4231942E-2],"split_indices":[10,1,1,9,1,0,0,6,6,10,0,0,0,0,0,0,0,0,2,0,0],"split_type":[0,0,0,0,0,0,0,0,0,0,0,0,0,0,0,0,0,0,0,0,0],"sum_hessian":[8.14E2,6.57E2,1.57E2,1.65E2,4.92E2,9.4E1,6.3E1,4.8E1,1.17E2,4.56E2,3.6E1,9.3E1,1E0,1E0,4.7E1,8.3E1,3.4E1,1E0,4.55E2,4.54E2,1E0],"tree_param":{"num_deleted":"0","num_feature":"11","num_nodes":"21","size_leaf_vector":"0"}},{"base_weights":[2.5222964E0,2.421519E0,2.926026E0,2.2772448E0,2.609342E0,2.6867394E0,3.1613417E0,2.28176E0,2.8300238E-1,2.7337196E0,2.2345858E0,2.8796988E0,2.2369905E0,3.210565E0,1.4972901E0,2.3086839E0,1.7873154E0,2.3782327E0,2.8513641E0,5.77741E-1,2.2491682E0,5.7466745E-1,2.3119497E0,1.0596793E0,1.923026E0,2.9590676E0,2.303657E0,6.353501E-1,2.314891E0,7.723117E-2,1.2407227E0,9.340645E-1,2.0500772E0],"categories":[],"categories_nodes":[],"categories_segments":[],"categories_sizes":[],"default_left":[1,1,1,1,1,1,1,1,0,1,1,0,0,0,0,1,1,0,1,0,0,0,1,1,1,0,0,0,0,0,0,0,0],"id":14,"left_children":[1,3,5,7,9,11,13,15,-1,17,19,-1,-1,-1,-1,21,23,-1,25,-1,-1,-1,27,29,31,-1,-1,-1,-1,-1,-1,-1,-1],"loss_changes":[2.6074219E1,1.1888428E1,4.029541E-1,2.7757568E0,6.895874E0,9.346924E-1,1.2542725E0,9.190674E-1,0E0,1.7921143E0,5.126343E-1,0E0,0E0,0E0,0E0,6.875E-1,3.3216095E-1,0E0,1.9727783E0,0E0,0E0,0E0,2.7978516E-1,9.713721E-1,4.7241974E-1,0E0,0E0,0E0,0E0,0E0,0E0,0E0,0E0],"parents":[2147483647,0,0,1,1,2,2,3,3,4,4,5,5,6,6,7,7,9,9,10,10,15,15,16,16,18,18,22,22,23,23,24,24],"right_children":[2,4,6,8,10,12,14,16,-1,18,20,-1,-1,-1,-1,22,24,-1,26,-1,-1,-1,28,30,32,-1,-1,-1,-1,-1,-1,-1,-1],"split_conditions":[1.145E1,6.35E-1,6.85E-1,1.0007E0,5.45E1,5.65E-1,1.3E1,8.825E-1,1.4150119E-2,9.75E0,1.55E0,1.4398494E-1,1.11849524E-1,1.6052826E-1,7.486451E-2,8.7E0,6.3E-2,1.1891164E-1,6.375E-1,2.8887052E-2,1.1245841E-1,2.8733373E-2,7.5E0,3.335E0,9.9571E-1,1.4795338E-1,1.15182854E-1,3.1767506E-2,1.1574455E-1,3.8615584E-3,6.2036134E-2,4.6703227E-2,1.0250386E-1],"split_indices":[10,9,9,7,6,1,0,1,0,10,3,0,0,0,0,10,4,0,1,0,0,0,6,8,7,0,0,0,0,0,0,0,0],"split_type":[0,0,0,0,0,0,0,0,0,0,0,0,0,0,0,0,0,0,0,0,0,0,0,0,0,0,0,0,0,0,0,0,0],"sum_hessian":[8.14E2,6.57E2,1.57E2,3.79E2,2.78E2,8.4E1,7.3E1,3.78E2,1E0,2.04E2,7.4E1,5.5E1,2.9E1,7E1,3E0,3.55E2,2.3E1,5.6E1,1.48E2,1E0,7.3E1,1E0,3.54E2,5E0,1.8E1,1.2E2,2.8E1,1E0,3.53E2,1E0,4E0,3E0,1.5E1],"tree_param":{"num_deleted":"0","num_feature":"11","num_nodes":"33","size_leaf_vector":"0"}},{"base_weights":[2.3979242E0,2.2831562E0,2.7197719E0,2.1044135E0,2.3975058E0,2.4788165E0,2.9624615E0,2.1107764E0,2.759273E-1,2.451772E0,1.9243797E0,2.5149512E0,1.2097707E0,2.9765172E0,7.925081E-1,2.114746E0,5.7307863E-1,2.4619577E0,1.026531E0,5.632975E-1,1.9438379E0,5.913247E-1,2.1185977E0,2.4658551E0,6.112937E-1,2.5812955E0,2.2923884E0],"categories":[],"categories_nodes":[],"categories_segments":[],"categories_sizes":[],"default_left":[1,1,1,1,1,1,1,1,0,1,1,0,0,0,0,1,0,1,0,0,0,0,0,1,0,0,0],"id":15,"left_children":[1,3,5,7,9,11,13,15,-1,17,19,-1,-1,-1,-1,21,-1,23,-1,-1,-1,-1,-1,25,-1,-1,-1],"loss_changes":[2.3894531E1,7.361328E0,4.878296E0,2.2679443E0,4.6018066E0,2.0476074E0,6.605835E-1,2.7746582E-1,0E0,2.1472168E0,1.737976E-2,0E0,0E0,0E0,0E0,1.7297363E-1,0E0,7.9345703E-1,0E0,0E0,0E0,0E0,0E0,4.5056152E-1,0E0,0E0,0E0],"parents":[2147483647,0,0,1,1,2,2,3,3,4,4,5,5,6,6,7,7,9,9,10,10,15,15,17,17,23,23],"right_children":[2,4,6,8,10,12,14,16,-1,18,20,-1,-1,-1,-1,22,-1,24,-1,-1,-1,-1,-1,26,-1,-1,-1],"split_conditions":[1.115E1,5.85E-1,6.75E-1,1.0007E0,8.8E1,9.05E-1,7.75E-1,1.455E0,1.3796366E-2,8.65E-1,1.55E0,1.2574756E-1,6.0488533E-2,1.4882587E-1,3.9625406E-2,3.6E-1,2.8653933E-2,8.8E-1,5.132655E-2,2.8164877E-2,9.719189E-2,2.9566234E-2,1.0592989E-1,5.3499997E-1,3.0564684E-2,1.2906478E-1,1.1461943E-1],"split_indices":[10,9,9,7,6,1,2,1,0,1,3,0,0,0,0,9,0,2,0,0,0,0,0,1,0,0,0],"split_type":[0,0,0,0,0,0,0,0,0,0,0,0,0,0,0,0,0,0,0,0,0,0,0,0,0,0,0],"sum_hessian":[8.14E2,6.06E2,2.08E2,2.44E2,3.62E2,1.1E2,9.8E1,2.43E2,1E0,3.21E2,4.1E1,1.06E2,4E0,9.7E1,1E0,2.42E2,1E0,3.18E2,3E0,1E0,4E1,1E0,2.41E2,3.17E2,1E0,1.82E2,1.35E2],"tree_param":{"num_deleted":"0","num_feature":"11","num_nodes":"27","size_leaf_vector":"0"}},{"base_weights":[2.2792592E0,2.6292024E0,2.1808646E0,2.1174703E0,2.7296104E0,2.0121233E0,2.3042107E0,1.5432702E0,2.761643E0,5.029911E-1,2.0157425E0,2.4191775E0,2.050285E0,2.7701395E0,8.030485E-1,5.7654154E-1,2.0188568E0,5.5659246E-1,2.42453E0,6.382667E-1,2.0688086E0,2.4320197E0,1.0121871E0,2.2261622E0,2.5499127E0],"categories":[],"categories_nodes":[],"categories_segments":[],"categories_sizes":[],"default_left":[1,1,1,0,1,1,1,0,1,0,1,1,1,0,0,0,0,0,1,0,0,1,0,0,0],"id":16,"left_children":[1,3,5,-1,7,9,11,-1,13,-1,15,17,19,-1,-1,-1,-1,-1,21,-1,-1,23,-1,-1,-1],"loss_changes":[2.2329102E1,3.1605225E0,8.72583E0,0E0,1.1341553E0,5.098877E-1,5.66626E0,0E0,5.5419922E-2,0E0,8.203125E-2,1.0928955E0,1.8182068E0,0E0,0E0,0E0,0E0,0E0,1.19506836E-1,0E0,0E0,1.9665527E-1,0E0,0E0,0E0],"parents":[2147483647,0,0,1,1,2,2,4,4,5,5,6,6,8,8,10,10,11,11,12,12,18,18,21,21],"right_children":[2,4,6,-1,8,10,12,-1,14,-1,16,18,20,-1,-1,-1,-1,-1,22,-1,-1,24,-1,-1,-1],"split_conditions":[3.75E-1,9.75E0,9.85E0,1.0587352E-1,6.2E0,8.45E0,6.375E-1,7.716351E-2,1.46E1,2.5149554E-2,8.5E0,7.5E0,1E1,1.3850698E-1,4.0152427E-2,2.8827077E-2,1.0094284E-1,2.7829623E-2,7.35E-1,3.1913336E-2,1.0344043E-1,6.15E-1,5.0609358E-2,1.1130811E-1,1.2749563E-1],"split_indices":[1,10,10,0,0,10,1,0,0,0,6,6,6,0,0,0,0,0,2,0,0,9,0,0,0],"split_type":[0,0,0,0,0,0,0,0,0,0,0,0,0,0,0,0,0,0,0,0,0,0,0,0,0],"sum_hessian":[8.14E2,1.73E2,6.41E2,3.2E1,1.41E2,2.78E2,3.63E2,5E0,1.36E2,1E0,2.77E2,2.44E2,1.19E2,1.35E2,1E0,1E0,2.76E2,1E0,2.43E2,2E0,1.17E2,2.41E2,2E0,9.5E1,1.46E2],"tree_param":{"num_deleted":"0","num_feature":"11","num_nodes":"25","size_leaf_vector":"0"}},{"base_weights":[2.1664855E0,2.0770714E0,2.525144E0,2.3250687E0,1.9893541E0,2.7232392E0,2.2979608E0,1.964479E0,2.455101E0,2.0184631E0,1.5760524E0,2.7380764E0,7.8297234E-1,5.4267764E-1,1.982794E0,2.6009252E0,2.0349772E0,1.8277496E0,2.075797E0,3.8496757E-1,1.5984446E0,2.6141102E0,7.5329196E-1,5.6484306E-1,2.0616033E0,1.850372E0,9.645073E-1,1.5370133E0,2.093997E0,9.9644655E-1,1.6856292E0,1.0963552E0,2.1855772E-1,1.5925168E0,3.7998176E-1,-2.8136015E-2,1.1718997E0,6.435586E-1,1.7370787E0],"categories":[],"categories_nodes":[],"categories_segments":[],"categories_sizes":[],"default_left":[1,1,1,1,1,1,0,1,1,1,1,0,0,0,0,1,1,1,1,0,1,0,0,0,0,0,1,1,0,1,1,0,0,0,0,0,0,0,0],"id":17,"left_children":[1,3,5,7,9,11,-1,13,15,17,19,-1,-1,-1,-1,21,23,25,27,-1,29,-1,-1,-1,-1,-1,31,33,-1,35,37,-1,-1,-1,-1,-1,-1,-1,-1],"loss_changes":[2.0891602E1,9.688477E0,8.5272217E-1,2.9604492E0,2.75E0,1.303711E-1,0E0,1.9996643E-1,1.9363403E0,1.2030029E0,3.7147522E-1,0E0,0E0,0E0,0E0,7.70874E-2,2.055664E-1,4.4155884E-1,1.5478516E-1,0E0,2.0982361E-1,0E0,0E0,0E0,0E0,0E0,2.5214243E-1,3.5816193E-1,0E0,1.291336E0,4.905014E-1,0E0,0E0,0E0,0E0,0E0,0E0,0E0,0E0],"parents":[2147483647,0,0,1,1,2,2,3,3,4,4,5,5,7,7,8,8,9,9,10,10,15,15,16,16,17,17,18,18,20,20,26,26,27,27,29,29,30,30],"right_children":[2,4,6,8,10,12,-1,14,16,18,20,-1,-1,-1,-1,22,24,26,28,-1,30,-1,-1,-1,-1,-1,32,34,-1,36,38,-1,-1,-1,-1,-1,-1,-1,-1],"split_conditions":[1.145E1,4.05E-1,4.3E-1,6.15E-1,8.425E-1,1.44E1,1.1489804E-1,7.5E0,4.8E1,9.45E0,8.475E-1,1.3690382E-1,3.9148618E-2,2.7133882E-2,9.9139705E-2,1.055E1,5.0499998E-2,1.02E1,4.65E-1,1.924838E-2,6.1499998E-2,1.3070552E-1,3.76646E-2,2.8242154E-2,1.0308017E-1,9.25186E-2,6.35E-1,7.275E-1,1.0469985E-1,3.335E0,4.5E-1,5.4817762E-2,1.0927886E-2,7.962584E-2,1.8999089E-2,-1.4068008E-3,5.8594983E-2,3.2177933E-2,8.685394E-2],"split_indices":[10,1,1,9,1,0,0,6,6,10,1,0,0,0,0,3,4,0,9,0,4,0,0,0,0,0,2,1,0,8,9,0,0,0,0,0,0,0,0],"split_type":[0,0,0,0,0,0,0,0,0,0,0,0,0,0,0,0,0,0,0,0,0,0,0,0,0,0,0,0,0,0,0,0,0,0,0,0,0,0,0],"sum_hessian":[8.14E2,6.57E2,1.57E2,1.65E2,4.92E2,7.8E1,7.9E1,4.8E1,1.17E2,4.56E2,3.6E1,7.7E1,1E0,1E0,4.7E1,8.3E1,3.4E1,1.13E2,3.43E2,1E0,3.5E1,8.2E1,1E0,1E0,3.3E1,1.09E2,4E0,1.4E1,3.29E2,6E0,2.9E1,3E0,1E0,1.3E1,1E0,1E0,5E0,2E0,2.7E1],"tree_param":{"num_deleted":"0","num_feature":"11","num_nodes":"39","size_leaf_vector":"0"}},{"base_weights":[2.0597243E0,1.9321468E0,2.2901945E0,2.017843E0,1.7132114E0,2.4264662E0,1.9827683E0,1.830747E0,2.1352684E0,8.894403E-1,1.729038E0,2.6187787E0,2.156743E0,2.1212E0,1.6213548E0,1.842523E0,6.3170224E-1,2.188717E0,1.7706403E0,2.6729248E0,1.7261796E0,2.2080913E0,1.0982157E0,2.4795091E-1,1.6601635E0,4.6300745E-1,1.848674E0],"categories":[],"categories_nodes":[],"categories_segments":[],"categories_sizes":[],"default_left":[1,1,1,1,1,1,1,1,1,0,0,1,0,1,1,1,0,0,0,0,0,0,0,0,0,0,0],"id":18,"left_children":[1,3,5,7,9,11,13,15,17,-1,-1,19,-1,21,23,25,-1,-1,-1,-1,-1,-1,-1,-1,-1,-1,-1],"loss_changes":[1.953833E1,6.505615E0,7.128418E0,4.3515625E0,4.9594116E-1,4.363159E0,1.2136841E0,9.822998E-1,5.095215E-1,0E0,0E0,6.0583496E-1,0E0,3.2638855E0,1.1873703E0,4.168396E-1,0E0,0E0,0E0,0E0,0E0,0E0,0E0,0E0,0E0,0E0,0E0],"parents":[2147483647,0,0,1,1,2,2,3,3,4,4,5,5,6,6,7,7,8,8,11,11,13,13,14,14,15,15],"right_children":[2,4,6,8,10,12,14,16,18,-1,-1,20,-1,22,24,26,-1,-1,-1,-1,-1,-1,-1,-1,-1,-1,-1],"split_conditions":[6.75E-1,6.525E-1,5.05E1,9.75E0,9.5E0,4.35E-1,9.45E-2,1.0007E0,3.47E0,4.4472016E-2,8.64519E-2,1.285E-1,1.07837155E-1,1.075E2,1.6500001E0,8.45E0,3.1585112E-2,1.0943585E-1,8.8532016E-2,1.3364623E-1,8.630898E-2,1.10404566E-1,5.4910786E-2,1.2397545E-2,8.300818E-2,2.3150373E-2,9.2433706E-2],"split_indices":[9,1,6,10,6,1,4,7,8,0,0,4,0,6,3,10,0,0,0,0,0,0,0,0,0,0,0],"split_type":[0,0,0,0,0,0,0,0,0,0,0,0,0,0,0,0,0,0,0,0,0,0,0,0,0,0,0],"sum_hessian":[8.14E2,5.3E2,2.84E2,3.75E2,1.55E2,1.92E2,9.2E1,1.51E2,2.24E2,4E0,1.51E2,1.07E2,8.5E1,6.3E1,2.9E1,1.49E2,2E0,1.91E2,3.3E1,9.9E1,8E0,5.7E1,6E0,1E0,2.8E1,1E0,1.48E2],"tree_param":{"num_deleted":"0","num_feature":"11","num_nodes":"27","size_leaf_vector":"0"}},{"base_weights":[1.9580444E0,1.8748575E0,2.2920883E0,1.7067789E0,1.9810584E0,2.090214E0,2.492997E0,1.7118064E0,1.9730115E-1,2.0807362E0,1.7393196E0,2.2600408E0,1.7035298E0,2.5421414E0,1.3063754E0,4.4396985E-1,1.7149751E0,2.2793076E0,1.9549611E0,1.7472298E0,3.9109182E-1,8.32351E-1,1.7220393E0,1.7760034E0,2.3742683E0,4.5143223E-1,1.960973E0,4.2502892E-1,1.7547061E0,1.7270283E0,7.239694E-1,1.982988E0,1.2535369E0,1.7617579E0,4.5777643E-1],"categories":[],"categories_nodes":[],"categories_segments":[],"categories_sizes":[],"default_left":[1,1,1,1,1,1,1,1,0,1,1,0,0,0,0,0,1,1,1,1,0,0,1,0,0,0,1,0,1,0,0,0,0,0,0],"id":19,"left_children":[1,3,5,7,9,11,13,15,-1,17,19,-1,-1,-1,-1,-1,21,23,25,27,-1,-1,29,-1,-1,-1,31,-1,33,-1,-1,-1,-1,-1,-1],"loss_changes":[1.8349854E1,8.364014E0,1.1973267E0,1.6505737E0,5.9471436E0,1.7318726E0,9.9438477E-1,2.871704E-1,0E0,2.4372559E0,6.1776733E-1,0E0,0E0,0E0,0E0,0E0,1.8780518E-1,6.1047363E-1,7.056885E-1,4.503479E-1,0E0,0E0,2.9296875E-2,0E0,0E0,0E0,2.397461E-1,0E0,2.909851E-1,0E0,0E0,0E0,0E0,0E0,0E0],"parents":[2147483647,0,0,1,1,2,2,3,3,4,4,5,5,6,6,7,7,9,9,10,10,16,16,17,17,18,18,19,19,22,22,26,26,28,28],"right_children":[2,4,6,8,10,12,14,16,-1,18,20,-1,-1,-1,-1,-1,22,24,26,28,-1,-1,30,-1,-1,-1,32,-1,34,-1,-1,-1,-1,-1,-1],"split_conditions":[1.145E1,5.85E-1,6.85E-1,1.0007E0,5.45E1,5.65E-1,1.205E1,5.1E0,9.865058E-3,4.05E-1,9.5500004E-1,1.1300204E-1,8.517649E-2,1.2710707E-1,6.531877E-2,2.2198493E-2,8.5E0,9.65E0,8.7E0,1.55E0,1.955459E-2,4.1617554E-2,1.24E1,8.880017E-2,1.18713416E-1,2.2571612E-2,3.585E0,2.1251446E-2,8.4000003E-1,8.635142E-2,3.619847E-2,9.91494E-2,6.267685E-2,8.8087894E-2,2.2888822E-2],"split_indices":[10,9,9,7,6,1,0,0,0,1,1,0,0,0,0,0,6,10,10,3,0,0,0,0,0,0,8,0,2,0,0,0,0,0,0],"split_type":[0,0,0,0,0,0,0,0,0,0,0,0,0,0,0,0,0,0,0,0,0,0,0,0,0,0,0,0,0,0,0,0,0,0,0],"sum_hessian":[8.14E2,6.57E2,1.57E2,2.61E2,3.96E2,8.4E1,7.3E1,2.6E2,1E0,2.75E2,1.21E2,5.5E1,2.9E1,6.9E1,4E0,1E0,2.59E2,1E2,1.75E2,1.2E2,1E0,3E0,2.56E2,1.9E1,8.1E1,1E0,1.74E2,1E0,1.19E2,2.54E2,2E0,1.67E2,7E0,1.18E2,1E0],"tree_param":{"num_deleted":"0","num_feature":"11","num_nodes":"35","size_leaf_vector":"0"}},{"base_weights":[1.8615294E0,1.7869822E0,2.2022567E0,2.0021348E0,1.7115914E0,1.7977915E0,2.3035755E0,1.6943828E0,2.1068065E0,1.7382628E0,1.3476472E0,6.68904E-1,1.8490454E0,2.3134108E0,6.157782E-1,4.5358396E-1,2.116721E0,1.6237224E0,1.82365E0,1.0900117E0,1.5614733E0,3.1680822E-2,9.7167516E-1,2.2123573E0,1.7018254E0,1.6286566E0,2.98697E-1,1.3375769E0,1.8542771E0,1.2267069E0,4.0724573E-1,5.9309804E-1,2.223274E0,1.7626456E0,6.2771493E-1,4.4014645E-1,1.632272E0,1.5128001E0,8.210799E-1,1.9008014E0,1.4621447E0,1.3090686E0,4.0599594E-1,-1.1383426E-1,5.659743E-1],"categories":[],"categories_nodes":[],"categories_segments":[],"categories_sizes":[],"default_left":[1,1,1,1,1,1,1,0,1,1,1,1,0,0,0,0,1,1,1,1,0,0,0,1,1,1,0,1,1,1,1,0,0,0,0,0,0,0,0,0,0,0,0,0,0],"id":20,"left_children":[1,3,5,7,9,11,13,-1,15,17,19,21,-1,-1,-1,-1,23,25,27,29,-1,-1,-1,31,33,35,-1,37,39,41,43,-1,-1,-1,-1,-1,-1,-1,-1,-1,-1,-1,-1,-1,-1],"loss_changes":[1.676587E1,7.5058594E0,1.6777954E0,1.8742065E0,2.5690918E0,6.725464E-1,4.0142822E-1,0E0,1.0396118E0,1.6159668E0,4.464569E-1,5.48015E-1,0E0,0E0,0E0,0E0,1.0361328E0,8.800049E-1,1.3903809E0,1.4603767E0,0E0,0E0,0E0,3.6065674E-1,6.5740204E-1,1.7529297E-1,0E0,4.7741318E-1,1.6357422E0,6.1763954E-1,4.779786E-1,0E0,0E0,0E0,0E0,0E0,0E0,0E0,0E0,0E0,0E0,0E0,0E0,0E0,0E0],"parents":[2147483647,0,0,1,1,2,2,3,3,4,4,5,5,6,6,8,8,9,9,10,10,11,11,16,16,17,17,18,18,19,19,23,23,24,24,25,25,27,27,28,28,29,29,30,30],"right_children":[2,4,6,8,10,12,14,-1,16,18,20,22,-1,-1,-1,-1,24,26,28,30,-1,-1,-1,32,34,36,-1,38,40,42,44,-1,-1,-1,-1,-1,-1,-1,-1,-1,-1,-1,-1,-1,-1],"split_conditions":[1.155E1,4.05E-1,5.85E-1,9.65E0,8.425E-1,1.05E1,7.75E-1,8.4719144E-2,7.5E0,9.75E0,8.5E-2,9.9E0,9.245227E-2,1.1567054E-1,3.0788912E-2,2.2679199E-2,4.95E1,1.24E1,1.35E1,1.8E1,7.8073665E-2,1.5840412E-3,4.8583757E-2,9.9393E-1,9.1499996E-1,8.7E0,1.493485E-2,6.725E-1,7.55E1,8.25E0,3.415E0,2.9654903E-2,1.111637E-1,8.8132285E-2,3.1385746E-2,2.2007322E-2,8.16136E-2,7.564001E-2,4.1053995E-2,9.5040075E-2,7.3107235E-2,6.545343E-2,2.0299798E-2,-5.691713E-3,2.8298715E-2],"split_indices":[10,1,9,10,1,6,2,0,6,10,2,0,0,0,0,0,6,0,6,5,0,0,0,7,9,10,0,1,6,0,8,0,0,0,0,0,0,0,0,0,0,0,0,0,0],"split_type":[0,0,0,0,0,0,0,0,0,0,0,0,0,0,0,0,0,0,0,0,0,0,0,0,0,0,0,0,0,0,0,0,0,0,0,0,0,0,0,0,0,0,0,0,0],"sum_hessian":[8.14E2,6.73E2,1.41E2,1.68E2,5.05E2,3.2E1,1.09E2,4.7E1,1.21E2,4.67E2,3.8E1,2E0,3E1,1.08E2,1E0,1E0,1.2E2,2.08E2,2.59E2,2E1,1.8E1,1E0,1E0,9.4E1,2.6E1,2.07E2,1E0,1.8E1,2.41E2,1.6E1,4E0,1E0,9.3E1,2.4E1,2E0,1E0,2.06E2,1.2E1,6E0,2.12E2,2.9E1,1.4E1,2E0,1E0,3E0],"tree_param":{"num_deleted":"0","num_feature":"11","num_nodes":"45","size_leaf_vector":"0"}},{"base_weights":[1.7699826E0,1.6568657E0,1.9745265E0,1.7334434E0,1.461673E0,2.1043997E0,1.7011188E0,1.5712768E0,1.8352917E0,1.315979E0,1.5904955E0,2.1316688E0,9.1741383E-1,1.7242224E0,4.0246645E-1,1.5817809E0,5.223128E-1,1.8885844E0,1.5134645E0,1.3464501E0,9.5229946E-2,1.6382772E0,8.7181175E-1,2.01106E0,2.3991556E0,1.733937E0,4.055252E-1,2.0773273E0,1.5315467E0,6.3190734E-1,1.5156186E-1,1.8935128E0,4.8101687E-1,7.4301344E-1,1.3693368E0,1.861813E-1,-4.333639E-2,-1.1098838E-1,1.0541098E0,7.953863E-1,2.0329955E0,2.5278625E0,1.6896235E0,1.8471136E0,1.456935E0,6.046975E-1,1.5405974E0,1.343505E0,1.9201038E0,1.3165233E0,1.9340361E0],"categories":[],"categories_nodes":[],"categories_segments":[],"categories_sizes":[],"default_left":[1,1,1,1,1,1,1,1,1,1,1,1,0,1,0,1,1,1,0,1,1,0,1,1,1,1,0,0,1,0,0,1,0,0,0,0,0,0,0,0,0,0,0,1,0,0,0,0,0,0,0],"id":21,"left_children":[1,3,5,7,9,11,13,15,17,19,21,23,-1,25,-1,27,29,31,-1,33,35,-1,37,39,41,43,-1,-1,45,-1,-1,47,-1,-1,-1,-1,-1,-1,-1,-1,-1,-1,-1,49,-1,-1,-1,-1,-1,-1,-1],"loss_changes":[1.5585449E1,5.4033203E0,6.540039E0,3.326416E0,8.3483887E-1,4.1619263E0,2.2164001E0,8.485718E-1,1.0007324E0,2.810379E0,1.2502594E0,1.1112671E0,0E0,5.13855E-1,0E0,5.5249023E-1,2.6123762E-2,4.003296E-1,0E0,4.597473E-2,4.5876816E-2,0E0,1.3711319E0,1.9296265E0,4.776001E-1,2.5576782E-1,0E0,0E0,2.4282837E-1,0E0,0E0,1.6992188E-1,0E0,0E0,0E0,0E0,0E0,0E0,0E0,0E0,0E0,0E0,0E0,3.5935974E-1,0E0,0E0,0E0,0E0,0E0,0E0,0E0],"parents":[2147483647,0,0,1,1,2,2,3,3,4,4,5,5,6,6,7,7,8,8,9,9,10,10,11,11,13,13,15,15,16,16,17,17,19,19,20,20,22,22,23,23,24,24,25,25,28,28,31,31,43,43],"right_children":[2,4,6,8,10,12,14,16,18,20,22,24,-1,26,-1,28,30,32,-1,34,36,-1,38,40,42,44,-1,-1,46,-1,-1,48,-1,-1,-1,-1,-1,-1,-1,-1,-1,-1,-1,50,-1,-1,-1,-1,-1,-1,-1],"split_conditions":[6.75E-1,6.525E-1,8.6500004E-2,9.75E0,1.25E1,1.055E2,3.55E1,1.0007E0,3.455E0,3.545E0,9.7E-1,1.165E1,4.587069E-2,8.95E-1,2.0123323E-2,2.4999999E-2,1.11E1,1.295E1,7.567322E-2,9.5E0,6.45E0,8.191386E-2,1E0,1.85E-1,2.2E1,5.65E-1,2.0276261E-2,1.0386636E-1,3.5E-2,3.1595368E-2,7.578093E-3,4.65E-1,2.4050845E-2,3.7150674E-2,6.846684E-2,9.3090655E-3,-2.1668195E-3,-5.549419E-3,5.2705493E-2,3.9769318E-2,1.01649776E-1,1.2639312E-1,8.448117E-2,9.45E0,7.2846755E-2,3.0234877E-2,7.702988E-2,6.7175254E-2,9.6005194E-2,6.582617E-2,9.670181E-2],"split_indices":[9,1,4,10,5,6,5,7,8,8,1,10,0,2,0,2,0,0,0,6,0,0,1,1,5,1,0,0,2,0,0,9,0,0,0,0,0,0,0,0,0,0,0,10,0,0,0,0,0,0,0],"split_type":[0,0,0,0,0,0,0,0,0,0,0,0,0,0,0,0,0,0,0,0,0,0,0,0,0,0,0,0,0,0,0,0,0,0,0,0,0,0,0,0,0,0,0,0,0,0,0,0,0,0,0],"sum_hessian":[8.14E2,5.3E2,2.84E2,3.75E2,1.55E2,1.88E2,9.6E1,1.51E2,2.24E2,7.8E1,7.7E1,1.83E2,5E0,9.4E1,2E0,1.49E2,2E0,1.88E2,3.6E1,7.6E1,2E0,7.1E1,6E0,1.32E2,5.1E1,9.3E1,1E0,1E1,1.39E2,1E0,1E0,1.87E2,1E0,4E0,7.2E1,1E0,1E0,1E0,5E0,3E0,1.29E2,4.1E1,1E1,6.2E1,3.1E1,2E0,1.37E2,1.1E1,1.76E2,1.1E1,5.1E1],"tree_param":{"num_deleted":"0","num_feature":"11","num_nodes":"51","size_leaf_vector":"0"}},{"base_weights":[1.6832367E0,1.5962801E0,1.9277319E0,1.4477063E0,1.674075E0,1.7408562E0,2.1177874E0,1.4530653E0,1.4777279E-1,1.7143555E0,1.3338273E0,2.0802088E0,1.6013129E0,2.1600373E0,1.1029048E0,3.9236856E-1,1.4561883E0,1.7770629E0,1.4864883E0,3.5066104E-1,1.3478829E0,1.6212585E0,-1.7113686E-2,2.2977495E0,1.6880419E0,1.5315788E0,1.3212794E0,1.790905E0,1.0070875E0,1.545743E0,8.407021E-1,1.6553646E0,7.649525E-1,9.2975765E-1,2.3243117E0,1.5370526E0,4.0999222E-1,-1.0821366E-1,1.339806E0,1.9398422E0,1.6909857E0,1.5584795E0,3.143543E-1,1.1141382E0,2.203725E-1,3.942418E-1,1.6666228E0],"categories":[],"categories_nodes":[],"categories_segments":[],"categories_sizes":[],"default_left":[1,1,1,1,1,1,1,1,0,1,1,0,1,1,0,0,1,1,1,0,0,1,0,1,0,1,1,1,0,1,1,1,0,0,0,0,0,0,0,0,0,0,0,0,0,0,0],"id":22,"left_children":[1,3,5,7,9,11,13,15,-1,17,19,-1,21,23,-1,-1,25,27,29,-1,-1,31,-1,33,-1,35,37,39,-1,41,43,45,-1,-1,-1,-1,-1,-1,-1,-1,-1,-1,-1,-1,-1,-1,-1],"loss_changes":[1.425E1,4.592407E0,3.736206E0,1.2899475E0,3.0858154E0,1.9252625E0,1.8627014E0,1.4083862E-1,0E0,2.3166504E0,1.6303253E-1,0E0,2.707016E0,2.2312317E0,0E0,0E0,1.5292358E-1,1.0420532E0,1.8000183E0,0E0,0E0,1.1285553E0,0E0,3.8253784E-1,0E0,1.7407227E-1,2.3696136E0,6.0388184E-1,0E0,6.549835E-1,1.2810593E0,4.5040894E-1,0E0,0E0,0E0,0E0,0E0,0E0,0E0,0E0,0E0,0E0,0E0,0E0,0E0,0E0,0E0],"parents":[2147483647,0,0,1,1,2,2,3,3,4,4,5,5,6,6,7,7,9,9,10,10,12,12,13,13,16,16,17,17,18,18,21,21,23,23,25,25,26,26,27,27,29,29,30,30,31,31],"right_children":[2,4,6,8,10,12,14,16,-1,18,20,-1,22,24,-1,-1,26,28,30,-1,-1,32,-1,34,-1,36,38,40,-1,42,44,46,-1,-1,-1,-1,-1,-1,-1,-1,-1,-1,-1,-1,-1,-1,-1],"split_conditions":[1.115E1,5.75E-1,6.75E-1,1.0007E0,8.85E1,3.75E-1,1.24E-1,5.1E0,7.3886397E-3,6.375E-1,1.55E0,1.0401044E-1,6.25E0,2.15E1,5.514524E-2,1.9618427E-2,9.9703E-1,3.725E-1,3.545E0,1.7533053E-2,6.7394145E-2,9.05E-1,-8.556843E-4,4.1500002E-2,8.44021E-2,1.455E0,9.97065E-1,3.255E0,5.0354373E-2,9.325E-1,7.3249996E-1,7.5E0,3.8247626E-2,4.6487883E-2,1.1621559E-1,7.6852635E-2,2.0499611E-2,-5.4106833E-3,6.69903E-2,9.699211E-2,8.4549285E-2,7.7923976E-2,1.5717715E-2,5.5706915E-2,1.1018625E-2,1.971209E-2,8.333114E-2],"split_indices":[10,9,9,7,6,1,4,0,0,1,3,0,3,5,0,0,7,4,8,0,0,1,0,4,0,1,7,8,0,1,1,6,0,0,0,0,0,0,0,0,0,0,0,0,0,0,0],"split_type":[0,0,0,0,0,0,0,0,0,0,0,0,0,0,0,0,0,0,0,0,0,0,0,0,0,0,0,0,0,0,0,0,0,0,0,0,0,0,0,0,0,0,0,0,0,0,0],"sum_hessian":[8.14E2,6.06E2,2.08E2,2.15E2,3.91E2,1.1E2,9.8E1,2.14E2,1E0,3.46E2,4.5E1,2.8E1,8.2E1,9.3E1,5E0,1E0,2.13E2,2.66E2,8E1,1E0,4.4E1,8.1E1,1E0,6.9E1,2.4E1,1.3E2,8.3E1,2.6E2,6E0,7.2E1,8E0,7.7E1,4E0,2E0,6.7E1,1.29E2,1E0,1E0,8.2E1,9.7E1,1.63E2,7.1E1,1E0,5E0,3E0,1E0,7.6E1],"tree_param":{"num_deleted":"0","num_feature":"11","num_nodes":"47","size_leaf_vector":"0"}},{"base_weights":[1.6005594E0,1.4970388E0,1.7878184E0,1.5670332E0,1.3187381E0,1.9076972E0,1.5358092E0,1.6821387E0,1.44298E0,1.1811985E0,1.4411342E0,1.932428E0,8.313365E-1,1.5574555E0,3.3840308E-1,1.2932873E0,1.733529E0,1.4607689E0,4.9975348E-1,1.2085476E0,8.5503496E-2,1.4833099E0,8.0145115E-1,1.8223815E0,2.176731E0,1.6060566E0,1.0874605E0,4.1528344E-1,9.232116E-2,1.752511E0,7.793972E-1,1.2889031E0,1.5296524E0,1.440785E-1,5.526526E-1,6.650539E-1,1.2292178E0,1.7601752E-1,-4.7762275E-2,-1.0550833E-1,9.7019583E-1,7.0222104E-1,1.8428297E0,2.2926903E0,1.5360931E0,1.3234253E0,1.754533E0,5.3925097E-1,1.2941589E0,3.4213185E-1,1.7592295E0,-1.6685963E-2,9.825895E-1,5.3330594E-1,1.3060591E0,1.8740153E-1,7.376166E-1,5.158922E-1,1.2525353E0,2.017919E0,1.6737587E0,1.3416443E0,3.702098E-1,5.3399533E-1,1.7926745E0],"categories":[],"categories_nodes":[],"categories_segments":[],"categories_sizes":[],"default_left":[1,1,1,1,1,1,1,1,1,1,1,1,0,1,1,0,1,1,1,1,1,0,1,1,1,1,1,0,0,1,1,1,0,0,0,1,0,0,0,0,1,0,1,0,0,1,1,0,0,0,0,0,0,0,0,0,0,0,0,0,0,0,0,0,0],"id":23,"left_children":[1,3,5,7,9,11,13,15,17,19,21,23,-1,25,27,-1,29,31,33,35,37,-1,39,41,43,45,47,-1,-1,49,51,53,-1,-1,-1,55,-1,-1,-1,-1,57,-1,59,-1,-1,61,63,-1,-1,-1,-1,-1,-1,-1,-1,-1,-1,-1,-1,-1,-1,-1,-1,-1,-1],"loss_changes":[1.3122559E1,4.5603027E0,5.680176E0,2.9417114E0,9.2388916E-1,3.4245605E0,1.9871521E0,1.5348511E0,2.424408E0,2.2640152E0,9.1555786E-1,9.7991943E-1,0E0,4.2347717E-1,1.841718E-2,0E0,1.6043396E0,2.0678711E-1,1.4449239E-2,4.75235E-2,4.4594266E-2,0E0,1.173676E0,1.7523193E0,3.4117126E-1,1.2030029E0,6.6189194E-1,0E0,0E0,9.142456E-1,8.2518554E-1,6.828308E-2,0E0,0E0,0E0,3.5068035E-2,0E0,0E0,0E0,0E0,1.2343359E-1,0E0,4.708252E-1,0E0,0E0,7.640457E-2,1.4634857E0,0E0,0E0,0E0,0E0,0E0,0E0,0E0,0E0,0E0,0E0,0E0,0E0,0E0,0E0,0E0,0E0,0E0,0E0],"parents":[2147483647,0,0,1,1,2,2,3,3,4,4,5,5,6,6,7,7,8,8,9,9,10,10,11,11,13,13,14,14,16,16,17,17,18,18,19,19,20,20,22,22,23,23,24,24,25,25,26,26,29,29,30,30,31,31,35,35,40,40,42,42,45,45,46,46],"right_children":[2,4,6,8,10,12,14,16,18,20,22,24,-1,26,28,-1,30,32,34,36,38,-1,40,42,44,46,48,-1,-1,50,52,54,-1,-1,-1,56,-1,-1,-1,-1,58,-1,60,-1,-1,62,64,-1,-1,-1,-1,-1,-1,-1,-1,-1,-1,-1,-1,-1,-1,-1,-1,-1,-1],"split_conditions":[6.75E-1,6.525E-1,8.6500004E-2,4.15E1,1.25E1,1.055E2,3.55E1,6.55E0,1.155E1,3.545E0,9.7E-1,1.165E1,4.1566826E-2,3.3850002E0,9.4E0,6.4664364E-2,6.25E0,9.45E0,1.175E1,9.5E0,6.45E0,7.416549E-2,1E0,1.85E-1,2.2E1,9.75E0,7.3E-1,2.0764172E-2,4.616058E-3,8.7E0,8.55E0,4.4999998E-2,7.648262E-2,7.203925E-3,2.763263E-2,7.55E0,6.146089E-2,8.800876E-3,-2.3881139E-3,-5.2754167E-3,1.6E-1,3.511105E-2,4.05E-1,1.14634514E-1,7.680466E-2,8.8E-1,2.9250002E0,2.6962548E-2,6.470795E-2,1.7106593E-2,8.796148E-2,-8.3429815E-4,4.9129475E-2,2.6665298E-2,6.530296E-2,9.3700765E-3,3.6880832E-2,2.579461E-2,6.262677E-2,1.00895956E-1,8.368794E-2,6.708222E-2,1.851049E-2,2.6699767E-2,8.9633726E-2],"split_indices":[9,1,4,6,5,6,5,0,0,8,1,10,0,8,0,0,3,10,0,6,0,0,1,1,5,10,9,0,0,10,0,2,0,0,0,0,0,0,0,0,2,0,1,0,0,2,8,0,0,0,0,0,0,0,0,0,0,0,0,0,0,0,0,0,0],"split_type":[0,0,0,0,0,0,0,0,0,0,0,0,0,0,0,0,0,0,0,0,0,0,0,0,0,0,0,0,0,0,0,0,0,0,0,0,0,0,0,0,0,0,0,0,0,0,0,0,0,0,0,0,0,0,0,0,0,0,0,0,0,0,0,0,0],"sum_hessian":[8.14E2,5.3E2,2.84E2,3.75E2,1.55E2,1.88E2,9.6E1,1.88E2,1.87E2,7.8E1,7.7E1,1.83E2,5E0,9.4E1,2E0,2.5E1,1.63E2,1.83E2,4E0,7.6E1,2E0,7.1E1,6E0,1.32E2,5.1E1,8.3E1,1.1E1,1E0,1E0,1.59E2,4E0,5.8E1,1.25E2,1E0,3E0,4E0,7.2E1,1E0,1E0,1E0,5E0,3E0,1.29E2,4.1E1,1E1,3.2E1,5.1E1,4E0,7E0,1E0,1.58E2,1E0,3E0,2E0,5.6E1,1E0,3E0,3E0,2E0,5.8E1,7.1E1,3.1E1,1E0,2E0,4.9E1],"tree_param":{"num_deleted":"0","num_feature":"11","num_nodes":"65","size_leaf_vector":"0"}},{"base_weights":[1.5223283E0,1.4551473E0,1.7924722E0,1.3652518E0,1.5927556E0,1.9501592E0,1.6143504E0,1.04489E0,1.3862736E0,1.6807237E0,1.3221471E0,1.9624425E0,4.9603033E-1,1.6230127E0,4.6501493E-1,9.6953964E-1,1.4008634E0,1.8327593E0,1.519198E0,1.384228E0,8.298633E-1,1.2709315E0,1.7060705E0,1.0112933E0,1.7161703E-1,1.4300295E0,1.1694171E0,1.9994354E0,1.5309584E0,1.5818907E0,1.0345271E0,3.2111108E-1,1.3972456E0,1.3566202E0,6.1044383E-1,1.5071878E0,1.2753452E0,1.1891607E0,1.4047658E-1,1.4380447E0,2.1357152E0,9.3992966E-1,1.6615895E0,1.2590404E0,1.663109E0,1.1002579E0,9.001315E-2,3.5614157E-1,1.4094771E0,5.619256E-1,1.4300104E0,-6.889558E-2,8.598555E-1],"categories":[],"categories_nodes":[],"categories_segments":[],"categories_sizes":[],"default_left":[1,1,1,1,1,1,1,0,1,1,1,0,0,1,0,1,1,1,1,1,0,1,0,0,0,1,1,1,1,1,1,0,1,1,1,0,0,0,0,0,0,0,0,0,0,0,0,0,0,0,0,0,0],"id":24,"left_children":[1,3,5,7,9,11,13,-1,15,17,19,-1,-1,21,-1,23,25,27,29,31,-1,33,-1,-1,-1,35,37,39,41,43,45,-1,47,49,51,-1,-1,-1,-1,-1,-1,-1,-1,-1,-1,-1,-1,-1,-1,-1,-1,-1,-1],"loss_changes":[1.2182861E1,5.96521E0,1.2896118E0,1.2789307E0,3.8242798E0,4.3762207E-1,4.1732788E-2,0E0,9.34021E-1,1.8324585E0,8.989029E-1,0E0,0E0,1.41922E-1,0E0,3.595047E-1,7.713623E-1,1.5668335E0,1.310852E0,3.540039E-1,0E0,2.4718857E-1,0E0,0E0,0E0,1.8612671E0,7.674408E-1,1.2131042E0,1.2948761E0,1.08673096E-1,7.70134E-1,0E0,2.2388458E-1,1.2960434E-1,7.369809E-1,0E0,0E0,0E0,0E0,0E0,0E0,0E0,0E0,0E0,0E0,0E0,0E0,0E0,0E0,0E0,0E0,0E0,0E0],"parents":[2147483647,0,0,1,1,2,2,3,3,4,4,5,5,6,6,8,8,9,9,10,10,13,13,15,15,16,16,17,17,18,18,19,19,21,21,25,25,26,26,27,27,28,28,29,29,30,30,32,32,33,33,34,34],"right_children":[2,4,6,8,10,12,14,-1,16,18,20,-1,-1,22,-1,24,26,28,30,32,-1,34,-1,-1,-1,36,38,40,42,44,46,-1,48,50,52,-1,-1,-1,-1,-1,-1,-1,-1,-1,-1,-1,-1,-1,-1,-1,-1,-1,-1],"split_conditions":[1.145E1,6.45E-1,4.3E-1,4.65E-1,5.45E1,1.44E1,7.6E-1,5.2244503E-2,6.3500004E0,4.35E-1,9.9955E-1,9.812213E-2,2.4801517E-2,5.65E-1,2.3250747E-2,9.96485E-1,4.35E-1,3.2649999E0,1.035E-1,1.55E0,4.1493166E-2,3.6E0,8.530353E-2,5.0564665E-2,8.580851E-3,6.525E-1,1.0007E0,9.65E0,3.295E0,6.95E0,1.075E1,1.6055554E-2,2E-1,5.3999998E-2,6.6E0,7.53594E-2,6.376726E-2,5.9458036E-2,7.0238295E-3,7.190224E-2,1.0678577E-1,4.6996485E-2,8.307948E-2,6.295202E-2,8.3155446E-2,5.5012893E-2,4.5006573E-3,1.780708E-2,7.047386E-2,2.809628E-2,7.1500525E-2,-3.444779E-3,4.2992774E-2],"split_indices":[10,9,1,9,6,0,2,0,0,1,7,0,0,9,0,7,2,8,4,3,0,3,0,0,0,1,7,10,8,0,0,0,1,4,0,0,0,0,0,0,0,0,0,0,0,0,0,0,0,0,0,0,0],"split_type":[0,0,0,0,0,0,0,0,0,0,0,0,0,0,0,0,0,0,0,0,0,0,0,0,0,0,0,0,0,0,0,0,0,0,0,0,0,0,0,0,0,0,0,0,0,0,0,0,0,0,0,0,0],"sum_hessian":[8.14E2,6.57E2,1.57E2,4.04E2,2.53E2,7.8E1,7.9E1,2.8E1,3.76E2,1.87E2,6.6E1,7.7E1,1E0,7.8E1,1E0,1.5E1,3.61E2,9.1E1,9.6E1,5.7E1,9E0,1.8E1,6E1,1.4E1,1E0,3.16E2,4.5E1,5.5E1,3.6E1,8.3E1,1.3E1,1E0,5.6E1,1.5E1,3E0,2.05E2,1.11E2,4.4E1,1E0,1.3E1,4.2E1,8E0,2.8E1,2E1,6.3E1,1.2E1,1E0,1E0,5.5E1,2E0,1.3E1,1E0,2E0],"tree_param":{"num_deleted":"0","num_feature":"11","num_nodes":"53","size_leaf_vector":"0"}},{"base_weights":[1.4478656E0,1.3711343E0,1.6637895E0,1.2397039E0,1.4400573E0,1.3804377E0,1.7560227E0,1.2441958E0,1.3696468E-1,1.4760747E0,1.1370552E0,1.4069062E0,4.4385925E-1,1.778313E0,9.098084E-1,1.3141698E0,1.119425E0,1.5313811E0,1.275545E0,3.130833E-1,1.1484082E0,1.1883126E0,1.6498667E0,1.7945173E0,7.422807E-1,2.5796676E-1,9.885834E-1,1.3869586E0,1.105033E0,-1.3475418E-1,1.1361592E0,1.286751E0,1.5804642E0,1.3279139E0,7.090479E-1,1.2308601E0,-6.532979E-2,4.413662E-1,1.6847364E0,1.8006395E0,4.5338964E-1,1.0165668E0,1.4390701E0,9.8967195E-2,1.1289041E0,7.008064E-2,1.1483055E0,1.2991252E0,3.4020793E-1,1.7186712E0,1.4878902E0,1.3395827E0,2.4388134E-1,5.92498E-2,8.862403E-1,1.3383521E0,6.711229E-1,2.0512216E0,1.6957992E0],"categories":[],"categories_nodes":[],"categories_segments":[],"categories_sizes":[],"default_left":[1,1,1,1,1,1,1,1,0,1,1,1,0,1,1,1,1,1,1,0,0,1,1,1,0,0,0,1,1,0,1,1,1,1,1,1,0,0,0,1,0,0,0,0,0,0,0,0,0,0,0,0,0,0,0,0,0,0,0],"id":25,"left_children":[1,3,5,7,9,11,13,15,-1,17,19,21,-1,23,25,27,29,31,33,-1,-1,35,37,39,-1,-1,-1,41,43,-1,45,47,49,51,53,55,-1,-1,-1,57,-1,-1,-1,-1,-1,-1,-1,-1,-1,-1,-1,-1,-1,-1,-1,-1,-1,-1,-1],"loss_changes":[1.122168E1,3.713501E0,3.0379639E0,8.995056E-1,2.5996094E0,7.637634E-1,1.2868958E0,4.0597534E-1,0E0,1.8951416E0,7.0762634E-2,9.0735626E-1,0E0,1.1694031E0,5.3071022E-2,4.7677612E-1,1.916069E0,1.1723022E0,1.4614563E0,0E0,0E0,1.7872696E0,2.2563553E-1,3.8238525E-1,0E0,0E0,0E0,3.514557E-1,8.2489395E-1,0E0,9.942856E-1,1.436615E-1,2.3199463E-1,5.9669495E-1,9.837432E-1,9.669914E-1,0E0,0E0,0E0,3.3087158E-1,0E0,0E0,0E0,0E0,0E0,0E0,0E0,0E0,0E0,0E0,0E0,0E0,0E0,0E0,0E0,0E0,0E0,0E0,0E0],"parents":[2147483647,0,0,1,1,2,2,3,3,4,4,5,5,6,6,7,7,9,9,10,10,11,11,13,13,14,14,15,15,16,16,17,17,18,18,21,21,22,22,23,23,27,27,28,28,30,30,31,31,32,32,33,33,34,34,35,35,39,39],"right_children":[2,4,6,8,10,12,14,16,-1,18,20,22,-1,24,26,28,30,32,34,-1,-1,36,38,40,-1,-1,-1,42,44,-1,46,48,50,52,54,56,-1,-1,-1,58,-1,-1,-1,-1,-1,-1,-1,-1,-1,-1,-1,-1,-1,-1,-1,-1,-1,-1,-1],"split_conditions":[1.115E1,5.75E-1,5.85E-1,1.0007E0,8.85E1,9.475E-1,1.24E-1,9.9703E-1,6.848234E-3,6.375E-1,1.55E0,2.8E1,2.2192962E-2,8.8750005E-1,1.295E-1,1.65E1,9.97065E-1,9.45E0,3.545E0,1.5654165E-2,5.742041E-2,6.25E0,6.05E0,7.75E-1,3.7114035E-2,1.2898338E-2,4.942917E-2,4.65E-1,9.1E0,-6.737709E-3,1.7E0,8.8E-1,3.255E0,9.325E-1,1.8E1,1.9E1,-3.2664896E-3,2.206831E-2,8.423682E-2,3.245E0,2.2669483E-2,5.0828338E-2,7.1953505E-2,4.94836E-3,5.6445207E-2,3.504032E-3,5.7415277E-2,6.495626E-2,1.7010396E-2,8.593356E-2,7.439452E-2,6.697913E-2,1.2194067E-2,2.96249E-3,4.4312015E-2,6.6917606E-2,3.3556145E-2,1.0256108E-1,8.478996E-2],"split_indices":[10,9,9,7,6,1,4,7,0,1,3,6,0,1,4,5,7,10,8,0,0,3,0,2,0,0,0,9,10,0,3,2,8,1,6,6,0,0,0,8,0,0,0,0,0,0,0,0,0,0,0,0,0,0,0,0,0,0,0],"split_type":[0,0,0,0,0,0,0,0,0,0,0,0,0,0,0,0,0,0,0,0,0,0,0,0,0,0,0,0,0,0,0,0,0,0,0,0,0,0,0,0,0,0,0,0,0,0,0,0,0,0,0,0,0,0,0,0,0,0,0],"sum_hessian":[8.14E2,6.06E2,2.08E2,2.15E2,3.91E2,5.5E1,1.53E2,2.14E2,1E0,3.46E2,4.5E1,5.3E1,2E0,1.48E2,5E0,1.31E2,8.3E1,2.66E2,8E1,1E0,4.4E1,3.1E1,2.2E1,1.45E2,3E0,1E0,4E0,9.3E1,3.8E1,1E0,8.2E1,4.9E1,2.17E2,7.2E1,8E0,3E1,1E0,1E0,2.1E1,1.44E2,1E0,1.4E1,7.9E1,1E0,3.7E1,1E0,8.1E1,4.8E1,1E0,8E1,1.37E2,7.1E1,1E0,2E0,6E0,2.4E1,6E0,3.7E1,1.07E2],"tree_param":{"num_deleted":"0","num_feature":"11","num_nodes":"59","size_leaf_vector":"0"}},{"base_weights":[1.376972E0,1.6416312E0,1.3177282E0,1.1567448E0,1.7055686E0,1.1948655E0,1.3990012E0,1.1817361E0,3.409543E-1,1.1449342E0,1.7440289E0,1.2464619E0,1.0168518E0,1.2931035E0,1.5484422E0,1.2323633E0,5.00937E-1,6.7347306E-1,1.31813E0,1.3464301E0,1.8128368E0,1.2530988E0,-6.369662E-2,6.832862E-2,1.0301881E0,1.3356775E0,1.0245727E0,4.161059E-1,1.560142E0,1.7764902E-1,7.530168E-1,3.0566955E-1,1.3831847E0,6.525154E-1,1.8305827E0,1.2892026E0,9.3869615E-1,1.0419282E0,1.3354051E-1,1.3680753E0,8.7152445E-1,1.5719011E0,7.144451E-1,3.977697E-1,1.4141133E0,1.8834754E0,1.3121938E0,2.692666E-1,1.2933271E0,1.0949254E-1,9.686841E-1,9.066556E-1,1.1987319E0,1.1683683E0,1.4319663E0,1.02257E0,1.6274512E-1,1.5836474E0,7.3256767E-1],"categories":[],"categories_nodes":[],"categories_segments":[],"categories_sizes":[],"default_left":[1,1,1,1,1,1,1,1,0,1,1,1,1,1,1,0,0,1,0,1,1,1,0,0,1,1,0,0,1,0,0,0,1,0,1,1,1,1,0,1,1,1,0,0,0,0,0,0,0,0,0,0,0,0,0,0,0,0,0],"id":26,"left_children":[1,3,5,7,9,11,13,15,-1,17,19,21,23,25,27,-1,-1,29,-1,31,33,35,-1,-1,37,39,-1,-1,41,-1,-1,-1,43,-1,45,47,49,51,-1,53,55,57,-1,-1,-1,-1,-1,-1,-1,-1,-1,-1,-1,-1,-1,-1,-1,-1,-1],"loss_changes":[1.06154785E1,2.5224E0,5.0285645E0,4.837036E-3,7.2003174E-1,1.249176E0,4.2962646E0,3.7534714E-2,0E0,1.0481834E-2,7.32666E-1,1.8884888E0,7.771454E-1,1.3638611E0,1.47052E0,0E0,0E0,6.342602E-2,0E0,3.8050842E-1,7.822876E-1,1.1394958E0,0E0,0E0,5.556259E-1,1.8602905E0,0E0,0E0,4.4821167E-1,0E0,0E0,0E0,4.7058105E-2,0E0,1.05895996E-1,4.2160034E-1,5.1559067E-1,2.9190063E-1,0E0,7.2576904E-1,1.5465097E0,3.6801147E-1,0E0,0E0,0E0,0E0,0E0,0E0,0E0,0E0,0E0,0E0,0E0,0E0,0E0,0E0,0E0,0E0,0E0],"parents":[2147483647,0,0,1,1,2,2,3,3,4,4,5,5,6,6,7,7,9,9,10,10,11,11,12,12,13,13,14,14,17,17,19,19,20,20,21,21,24,24,25,25,28,28,32,32,34,34,35,35,36,36,37,37,39,39,40,40,41,41],"right_children":[2,4,6,8,10,12,14,16,-1,18,20,22,24,26,28,-1,-1,30,-1,32,34,36,-1,-1,38,40,-1,-1,42,-1,-1,-1,44,-1,46,48,50,52,-1,54,56,58,-1,-1,-1,-1,-1,-1,-1,-1,-1,-1,-1,-1,-1,-1,-1,-1,-1],"split_conditions":[3.5500002E-1,3.25E-1,5.85E-1,3.15E-1,1.95E-1,9.97455E-1,1.0525E1,9.2E-1,1.7047716E-2,4.1E-1,9.75E0,6.25E0,1.7E0,8.8E1,2.935E0,6.1618168E-2,2.504685E-2,1.1E1,6.59065E-2,4E0,4.5E-2,8.425E-1,-3.1848312E-3,3.416431E-3,1.0007E0,3.5349998E0,5.122864E-2,2.0805296E-2,8.8750005E-1,8.882451E-3,3.7650842E-2,1.52834775E-2,3.75E-1,3.2625772E-2,3.3850002E0,7.5E0,8.475E-1,9.9835E-1,6.6770255E-3,9.45E0,7.3249996E-1,1.24E-1,3.5722256E-2,1.9888485E-2,7.070567E-2,9.4173774E-2,6.5609686E-2,1.346333E-2,6.466635E-2,5.474627E-3,4.8434205E-2,4.5332782E-2,5.9936594E-2,5.841842E-2,7.1598314E-2,5.1128503E-2,8.137256E-3,7.918237E-2,3.6628384E-2],"split_indices":[1,2,9,2,1,7,10,9,0,2,10,3,3,6,8,0,0,5,0,5,4,1,0,0,7,8,0,0,1,0,0,0,2,0,8,6,1,7,0,10,1,4,0,0,0,0,0,0,0,0,0,0,0,0,0,0,0,0,0],"split_type":[0,0,0,0,0,0,0,0,0,0,0,0,0,0,0,0,0,0,0,0,0,0,0,0,0,0,0,0,0,0,0,0,0,0,0,0,0,0,0,0,0,0,0,0,0,0,0,0,0,0,0,0,0,0,0,0,0,0,0],"sum_hessian":[8.14E2,1.44E2,6.7E2,1.9E1,1.25E2,2.73E2,3.97E2,1.8E1,1E0,1E1,1.15E2,2.07E2,6.6E1,2.38E2,1.59E2,1.6E1,2E0,4E0,6E0,2E1,9.5E1,2.06E2,1E0,1E0,6.5E1,2.02E2,3.6E1,2E0,1.57E2,1E0,3E0,1E0,1.9E1,2E0,9.3E1,1.82E2,2.4E1,6.4E1,1E0,1.87E2,1.5E1,1.54E2,3E0,1E0,1.8E1,8.2E1,1.1E1,1E0,1.81E2,1E0,2.3E1,3.8E1,2.6E1,5E1,1.37E2,1.2E1,3E0,1.51E2,3E0],"tree_param":{"num_deleted":"0","num_feature":"11","num_nodes":"59","size_leaf_vector":"0"}},{"base_weights":[1.3095608E0,1.2204832E0,1.4709316E0,1.2791514E0,1.0712539E0,1.5756916E0,1.2516476E0,1.3825165E0,1.1684326E0,9.4660777E-1,1.1837639E0,1.6731169E0,1.3011445E0,1.2706887E0,2.3146455E-1,1.0367191E0,1.4289081E0,1.1842172E0,3.538708E-1,9.6917486E-1,5.184992E-2,1.2195944E0,6.4611304E-1,1.5243183E0,1.9224521E0,1.3521402E0,6.67823E-1,1.3147638E0,8.56272E-1,3.3243036E-1,1.4766455E-2,1.445678E0,6.06489E-1,1.039527E0,1.2425705E0,4.989764E-1,9.8810387E-1,1.6177666E-1,-8.400178E-2,9.5177484E-1,1.2976471E0,-1.5560246E-1,8.05666E-1,1.7320776E-1,1.5375532E0,7.017965E-1,1.961108E0,1.3707434E0,2.295928E-1,1.0716193E0,1.443783E0,3.7345147E-1,1.0510008E0,1.3890591E0,1.8684322E0,-6.2104225E-2,7.8916335E-1,4.8720706E-1,1.0604155E0,1.2572541E0,6.3577586E-1,8.252299E-2,5.8245903E-1,1.0251191E0,6.862804E-1,1.3780266E0,9.443236E-1,3.8522565E-1,1.0976979E0,6.2930393E-1,1.5511992E0,7.613899E-1,1.999202E0,1.3958664E0,5.2860975E-1,6.5037876E-1,1.1600156E0,4.0223566E-1,1.4774003E0,4.1560894E-1,1.0241079E-1],"categories":[],"categories_nodes":[],"categories_segments":[],"categories_sizes":[],"default_left":[1,1,1,1,1,1,1,1,1,1,1,1,1,1,1,0,1,1,0,1,1,1,1,1,1,1,0,1,1,0,0,1,1,1,1,1,1,0,0,0,1,0,1,0,1,0,1,1,0,1,1,1,0,0,0,0,0,0,0,0,0,0,0,0,0,0,0,0,0,0,0,0,0,0,0,0,0,0,0,0,0],"id":27,"left_children":[1,3,5,7,9,11,13,15,17,19,21,23,25,27,29,-1,31,33,-1,35,37,39,41,43,45,47,-1,49,51,-1,-1,53,55,57,59,61,63,-1,-1,-1,65,-1,67,-1,69,-1,71,73,-1,75,77,79,-1,-1,-1,-1,-1,-1,-1,-1,-1,-1,-1,-1,-1,-1,-1,-1,-1,-1,-1,-1,-1,-1,-1,-1,-1,-1,-1,-1,-1],"loss_changes":[9.920044E0,3.2786255E0,4.574829E0,2.6877441E0,1.0671844E0,2.8783875E0,1.5901337E0,1.5505676E0,1.998169E0,1.5449219E0,7.1460724E-1,2.115265E0,8.4103394E-1,6.094208E-1,6.0728475E-2,0E0,1.3850708E0,2.6187134E-1,0E0,1.9229126E-1,5.8390733E-2,2.7002716E-1,1.0207765E0,1.3430481E0,8.4143066E-1,7.085495E-1,0E0,1.0879211E0,7.357302E-1,0E0,0E0,1.2344055E0,6.596844E-1,1.6404724E-1,3.2333374E-1,1.2576687E-1,1.1203003E-1,0E0,0E0,0E0,2.0389557E-1,0E0,3.1383014E-1,0E0,1.2686157E-1,0E0,5.344238E-1,2.7766418E-1,0E0,4.7434235E-1,1.2264633E0,1.4569104E-2,0E0,0E0,0E0,0E0,0E0,0E0,0E0,0E0,0E0,0E0,0E0,0E0,0E0,0E0,0E0,0E0,0E0,0E0,0E0,0E0,0E0,0E0,0E0,0E0,0E0,0E0,0E0,0E0,0E0],"parents":[2147483647,0,0,1,1,2,2,3,3,4,4,5,5,6,6,7,7,8,8,9,9,10,10,11,11,12,12,13,13,14,14,16,16,17,17,19,19,20,20,21,21,22,22,23,23,24,24,25,25,27,27,28,28,31,31,32,32,33,33,34,34,35,35,36,36,40,40,42,42,44,44,46,46,47,47,49,49,50,50,51,51],"right_children":[2,4,6,8,10,12,14,16,18,20,22,24,26,28,30,-1,32,34,-1,36,38,40,42,44,46,48,-1,50,52,-1,-1,54,56,58,60,62,64,-1,-1,-1,66,-1,68,-1,70,-1,72,74,-1,76,78,80,-1,-1,-1,-1,-1,-1,-1,-1,-1,-1,-1,-1,-1,-1,-1,-1,-1,-1,-1,-1,-1,-1,-1,-1,-1,-1,-1,-1,-1],"split_conditions":[6.75E-1,6.525E-1,8.6500004E-2,4.15E1,1.25E1,1.95E1,3.55E1,6.55E0,1.155E1,3.545E0,9.7E-1,1.125E1,1.01E2,3.3850002E0,9.4E0,5.1835954E-2,6.25E0,9.45E0,1.769354E-2,9.5E0,6.45E0,9.45E0,1E0,1.85E-1,4.1500002E-2,6.95E-1,3.339115E-2,9.75E0,7.3E-1,1.6621519E-2,7.3832273E-4,3.5E0,8.55E0,4.25E1,1.275E1,7.55E0,1.095E1,8.088834E-3,-4.2000893E-3,4.7588743E-2,8.15E1,-7.780123E-3,1.6E-1,8.660388E-3,6.05E0,3.5089824E-2,6.85E-1,9.999E-1,1.147964E-2,2.35E1,2.9250002E0,8.15E0,5.2550044E-2,6.945296E-2,9.342161E-2,-3.1052113E-3,3.9458167E-2,2.4360353E-2,5.3020775E-2,6.286271E-2,3.1788792E-2,4.1261497E-3,2.9122952E-2,5.1255953E-2,3.431402E-2,6.890133E-2,4.721618E-2,1.9261284E-2,5.4884892E-2,3.14652E-2,7.755996E-2,3.8069498E-2,9.99601E-2,6.979332E-2,2.6430488E-2,3.251894E-2,5.800078E-2,2.0111782E-2,7.387002E-2,2.0780448E-2,5.1205396E-3],"split_indices":[9,1,4,6,5,5,5,0,0,8,1,10,6,8,0,0,3,10,0,6,0,10,1,1,4,1,0,10,9,0,0,3,0,6,10,0,10,0,0,0,6,0,2,0,0,0,9,7,0,6,8,0,0,0,0,0,0,0,0,0,0,0,0,0,0,0,0,0,0,0,0,0,0,0,0,0,0,0,0,0,0],"split_type":[0,0,0,0,0,0,0,0,0,0,0,0,0,0,0,0,0,0,0,0,0,0,0,0,0,0,0,0,0,0,0,0,0,0,0,0,0,0,0,0,0,0,0,0,0,0,0,0,0,0,0,0,0,0,0,0,0,0,0,0,0,0,0,0,0,0,0,0,0,0,0,0,0,0,0,0,0,0,0,0,0],"sum_hessian":[8.14E2,5.3E2,2.84E2,3.75E2,1.55E2,1.88E2,9.6E1,1.88E2,1.87E2,7.8E1,7.7E1,1.35E2,5.3E1,9.4E1,2E0,2.5E1,1.63E2,1.83E2,4E0,7.6E1,2E0,7.1E1,6E0,8.9E1,4.6E1,4.8E1,5E0,8.3E1,1.1E1,1E0,1E0,1.59E2,4E0,5.8E1,1.25E2,4E0,7.2E1,1E0,1E0,1.9E1,5.2E1,1E0,5E0,1E0,8.8E1,2E0,4.4E1,4.7E1,1E0,3.2E1,5.1E1,4E0,7E0,1.44E2,1.5E1,1E0,3E0,3E0,5.5E1,1.21E2,4E0,1E0,3E0,6.2E1,1E1,4E1,1.2E1,3E0,2E0,2E0,8.6E1,2E0,4.2E1,4.5E1,2E0,7E0,2.5E1,2E0,4.9E1,3E0,1E0],"tree_param":{"num_deleted":"0","num_feature":"11","num_nodes":"81","size_leaf_vector":"0"}},{"base_weights":[1.2459303E0,1.5247054E0,1.1970172E0,6.569055E-1,1.5493922E0,1.0765547E0,1.276089E0,1.1451681E0,1.6084298E0,1.1225342E0,9.206094E-1,1.1704456E0,1.4162916E0,2.5924778E-1,1.1820312E0,1.1535345E0,1.6906759E0,1.1283728E0,-6.0551643E-2,4.099238E-2,9.327634E-1,1.209405E0,9.2085E-1,3.8882795E-1,1.4259782E0,6.888494E-1,1.3301195E0,1.1950347E0,2.2401476E-1,1.7618898E0,1.2646224E0,1.1590636E0,8.512154E-1,9.429112E-1,1.21355295E-1,1.2387291E0,7.8192675E-1,2.6294637E-1,9.3182105E-1,1.4909939E0,1.1962571E0,4.984877E-1,1.7736578E0,1.3406883E0,9.9850416E-2,2.2780848E-1,1.1628053E0,9.091837E-1,3.195861E-1,9.537561E-1,3.9002013E-1,1.243299E0,1.8294704E-1,9.160715E-1,1.5047485E-1,1.7162898E0,1.3717924E0,1.2390573E0,4.6919107E-1],"categories":[],"categories_nodes":[],"categories_segments":[],"categories_sizes":[],"default_left":[1,1,1,0,1,1,1,1,1,1,1,1,1,0,1,1,1,1,0,0,1,1,1,0,1,0,0,0,0,1,1,1,1,1,0,1,1,0,0,1,1,0,0,0,0,0,0,0,0,0,0,0,0,0,0,0,0,0,0],"id":28,"left_children":[1,3,5,-1,7,9,11,13,15,17,19,21,23,-1,25,27,29,31,-1,-1,33,35,37,-1,39,-1,-1,-1,-1,41,43,45,47,49,-1,51,53,-1,-1,55,57,-1,-1,-1,-1,-1,-1,-1,-1,-1,-1,-1,-1,-1,-1,-1,-1,-1,-1],"loss_changes":[9.288086E0,1.5101318E0,5.2747803E0,0E0,8.786316E-1,9.9575806E-1,4.503845E0,2.8140068E-1,1.678833E0,1.5465393E0,7.1012115E-1,1.2492676E0,1.1772766E0,0E0,3.2533264E-1,4.266491E-1,1.9915771E-1,8.2522583E-1,0E0,0E0,4.537239E-1,1.6262512E0,2.2045135E-2,0E0,7.852783E-1,0E0,0E0,0E0,0E0,9.710693E-2,1.1951218E0,3.936615E-1,4.7987747E-1,3.5743713E-2,0E0,6.9888306E-1,1.2174482E0,0E0,0E0,1.1368103E0,7.567444E-1,0E0,0E0,0E0,0E0,0E0,0E0,0E0,0E0,0E0,0E0,0E0,0E0,0E0,0E0,0E0,0E0,0E0,0E0],"parents":[2147483647,0,0,1,1,2,2,4,4,5,5,6,6,7,7,8,8,9,9,10,10,11,11,12,12,14,14,15,15,16,16,17,17,20,20,21,21,22,22,24,24,29,29,30,30,31,31,32,32,33,33,35,35,36,36,39,39,40,40],"right_children":[2,4,6,-1,8,10,12,14,16,18,20,22,24,-1,26,28,30,32,-1,-1,34,36,38,-1,40,-1,-1,-1,-1,42,44,46,48,50,-1,52,54,-1,-1,56,58,-1,-1,-1,-1,-1,-1,-1,-1,-1,-1,-1,-1,-1,-1,-1,-1,-1,-1],"split_conditions":[3.35E-1,6.25E0,5.85E-1,3.2845274E-2,9.75E0,9.97455E-1,1.0525E1,4E0,2.35E-1,6.25E0,1.7E0,8.8E1,2.935E0,1.2962389E-2,6.65E-1,2.25E-1,3.335E0,8.425E-1,-3.0275823E-3,2.049619E-3,1.0007E0,3.5349998E0,1.55E0,1.9441398E-2,2.15E1,3.444247E-2,6.6505976E-2,5.9751738E-2,1.1200738E-2,7.5E0,5.45E-1,7.5E0,9.9695003E-1,1.24E1,6.067765E-3,9.325E-1,7.3249996E-1,1.3147319E-2,4.6591055E-2,4.25E-1,1.105E1,2.4924386E-2,8.868289E-2,6.7034416E-2,4.992521E-3,1.1390424E-2,5.8140267E-2,4.5459185E-2,1.5979305E-2,4.7687806E-2,1.9501006E-2,6.216495E-2,9.147353E-3,4.5803573E-2,7.5237425E-3,8.581449E-2,6.858962E-2,6.1952867E-2,2.3459554E-2],"split_indices":[1,0,9,0,10,7,10,5,1,3,3,6,8,0,9,1,8,1,0,0,7,8,3,0,5,0,0,0,0,6,2,6,7,0,0,1,1,0,0,1,0,0,0,0,0,0,0,0,0,0,0,0,0,0,0,0,0,0,0],"split_type":[0,0,0,0,0,0,0,0,0,0,0,0,0,0,0,0,0,0,0,0,0,0,0,0,0,0,0,0,0,0,0,0,0,0,0,0,0,0,0,0,0,0,0,0,0,0,0,0,0,0,0,0,0,0,0,0,0,0,0],"sum_hessian":[8.14E2,1.17E2,6.97E2,4E0,1.13E2,2.82E2,4.15E2,1.7E1,9.6E1,2.13E2,6.9E1,2.42E2,1.73E2,1E0,1.6E1,1.7E1,7.9E1,2.12E2,1E0,1E0,6.8E1,2.06E2,3.6E1,2E0,1.71E2,5E0,1.1E1,1.6E1,1E0,6.5E1,1.4E1,1.88E2,2.4E1,6.7E1,1E0,1.91E2,1.5E1,1E0,3.5E1,1.29E2,4.2E1,1E0,6.4E1,1.3E1,1E0,1E0,1.87E2,2.1E1,3E0,6.5E1,2E0,1.9E2,1E0,1.2E1,3E0,4E1,8.9E1,3.9E1,3E0],"tree_param":{"num_deleted":"0","num_feature":"11","num_nodes":"59","size_leaf_vector":"0"}},{"base_weights":[1.1849225E0,1.4518883E0,1.1380931E0,6.3062906E-1,1.4751726E0,1.023445E0,1.213351E0,1.0942382E0,1.5306535E0,1.0670053E0,8.756546E-1,1.1126821E0,1.346967E0,2.527666E-1,1.1288679E0,1.0997998E0,1.6084625E0,1.072569E0,-5.9037924E-2,3.9967537E-2,8.8718677E-1,1.149537E0,8.764218E-1,3.758669E-1,1.3560735E0,6.6014737E-1,1.2691557E0,1.1387981E0,2.184143E-1,1.6755166E0,1.2061933E0,1.1067353E0,8.4473014E-1,8.9675355E-1,1.1832142E-1,1.1771643E0,7.4616337E-1,2.563727E-1,8.8652396E-1,1.367073E0,5.5232656E-1,4.615383E-1,1.6870927E0,1.2784423E0,9.735417E-2,7.747493E-1,1.1340669E0,6.821719E-1,1.093053E0,7.0671105E-1,9.5602083E-1,9.997894E-1,1.235905E0,8.737913E-1,1.4483202E-1,1.3774673E0,5.939454E-1],"categories":[],"categories_nodes":[],"categories_segments":[],"categories_sizes":[],"default_left":[1,1,1,0,1,1,1,1,1,1,1,1,1,0,1,1,1,1,0,0,1,1,1,0,1,0,0,0,0,1,1,1,1,1,0,1,1,0,0,1,0,0,0,0,0,0,0,0,0,0,0,0,0,0,0,0,0],"id":29,"left_children":[1,3,5,-1,7,9,11,13,15,17,19,21,23,-1,25,27,29,31,-1,-1,33,35,37,-1,39,-1,-1,-1,-1,41,43,45,47,49,-1,51,53,-1,-1,55,-1,-1,-1,-1,-1,-1,-1,-1,-1,-1,-1,-1,-1,-1,-1,-1,-1],"loss_changes":[8.536621E0,1.3261566E0,4.7807007E0,0E0,7.344513E-1,8.875427E-1,4.096863E0,2.3917961E-1,1.4828796E0,1.4040527E0,6.391487E-1,1.1083984E0,1.0290527E0,0E0,2.8001976E-1,3.6997604E-1,1.3690186E-1,7.231903E-1,0E0,0E0,4.0143204E-1,1.4284668E0,4.480362E-3,0E0,7.655029E-1,0E0,0E0,0E0,0E0,1.4884949E-1,1.0772247E0,7.7279663E-1,5.460911E-1,9.027481E-2,0E0,7.6483154E-1,1.1013927E0,0E0,0E0,5.39978E-1,0E0,0E0,0E0,0E0,0E0,0E0,0E0,0E0,0E0,0E0,0E0,0E0,0E0,0E0,0E0,0E0,0E0],"parents":[2147483647,0,0,1,1,2,2,4,4,5,5,6,6,7,7,8,8,9,9,10,10,11,11,12,12,14,14,15,15,16,16,17,17,20,20,21,21,22,22,24,24,29,29,30,30,31,31,32,32,33,33,35,35,36,36,39,39],"right_children":[2,4,6,-1,8,10,12,14,16,18,20,22,24,-1,26,28,30,32,-1,-1,34,36,38,-1,40,-1,-1,-1,-1,42,44,46,48,50,-1,52,54,-1,-1,56,-1,-1,-1,-1,-1,-1,-1,-1,-1,-1,-1,-1,-1,-1,-1,-1,-1],"split_conditions":[3.35E-1,6.25E0,5.85E-1,3.1531453E-2,9.75E0,9.97455E-1,1.0525E1,4E0,2.35E-1,6.25E0,1.7E0,8.8E1,2.935E0,1.263833E-2,6.65E-1,2.25E-1,3.335E0,7.9E-1,-2.9518963E-3,1.9983768E-3,1.0007E0,3.5349998E0,1.55E0,1.8793344E-2,4.15E1,3.300737E-2,6.345779E-2,5.6939907E-2,1.09207155E-2,2.5E-1,5.45E-1,5.85E-2,8.5E-2,2.35E0,5.916071E-3,9.45E0,7.3249996E-1,1.28186345E-2,4.4326197E-2,1.24E-1,2.7616328E-2,2.3076916E-2,8.435463E-2,6.3922115E-2,4.867709E-3,3.8737465E-2,5.6703348E-2,3.4108594E-2,5.465265E-2,3.5335552E-2,4.7801044E-2,4.9989473E-2,6.1795253E-2,4.3689564E-2,7.2416007E-3,6.887337E-2,2.969727E-2],"split_indices":[1,0,9,0,10,7,10,5,1,3,3,6,8,0,9,1,8,1,0,0,7,8,3,0,5,0,0,0,0,2,2,4,2,3,0,10,1,0,0,4,0,0,0,0,0,0,0,0,0,0,0,0,0,0,0,0,0],"split_type":[0,0,0,0,0,0,0,0,0,0,0,0,0,0,0,0,0,0,0,0,0,0,0,0,0,0,0,0,0,0,0,0,0,0,0,0,0,0,0,0,0,0,0,0,0,0,0,0,0,0,0,0,0,0,0,0,0],"sum_hessian":[8.14E2,1.17E2,6.97E2,4E0,1.13E2,2.82E2,4.15E2,1.7E1,9.6E1,2.13E2,6.9E1,2.42E2,1.73E2,1E0,1.6E1,1.7E1,7.9E1,2.12E2,1E0,1E0,6.8E1,2.06E2,3.6E1,2E0,1.71E2,5E0,1.1E1,1.6E1,1E0,6.5E1,1.4E1,1.81E2,3.1E1,6.7E1,1E0,1.91E2,1.5E1,1E0,3.5E1,1.68E2,3E0,1E0,6.4E1,1.3E1,1E0,1.6E1,1.65E2,2.1E1,1E1,1.9E1,4.8E1,5.2E1,1.39E2,1.2E1,3E0,1.65E2,3E0],"tree_param":{"num_deleted":"0","num_feature":"11","num_nodes":"57","size_leaf_vector":"0"}},{"base_weights":[1.1269301E0,1.0769761E0,1.3560996E0,1.2265524E0,1.0248903E0,1.4669982E0,1.1540053E0,1.3824586E0,1.0935981E0,7.039861E-1,1.0394084E0,1.483756E0,4.9760947E-1,9.4668233E-1,1.3823524E0,6.094962E-1,1.4296371E0,8.36378E-1,1.1723887E0,1.0547096E0,8.2054746E-1,1.4979059E0,5.929742E-1,5.385801E-1,1.082958E0,1.4881473E0,6.8270254E-1,2.022047E-1,7.6259077E-1,1.5163965E0,1.0162097E0,8.8981825E-1,4.3396512E-1,1.1882416E0,4.169744E-1,1.5135849E-1,1.0563956E0,7.693282E-1,1.2600422E-4,1.138401E0,3.3387104E-1,1.5483161E0,6.3108444E-1,2.3289132E-1,1.5358523E0,1.788137E-1,1.0632513E0,8.281737E-1,1.2352333E0,7.505288E-1,1.0660313E0,3.816378E-1,9.646865E-1,1.2142149E-1,-1.8188024E-1,2.6923728E-1,1.1683973E0,4.567604E-1,1.5856571E0],"categories":[],"categories_nodes":[],"categories_segments":[],"categories_sizes":[],"default_left":[1,1,1,1,1,1,1,1,1,0,1,1,0,1,1,1,1,1,1,1,0,0,0,1,1,1,0,0,0,1,1,0,0,1,0,0,1,1,1,1,0,1,0,0,0,0,0,0,0,0,0,0,0,0,0,0,0,0,0],"id":30,"left_children":[1,3,5,7,9,11,13,15,17,-1,19,21,-1,23,25,27,29,31,33,35,-1,-1,-1,37,39,41,-1,-1,-1,43,45,-1,-1,47,-1,-1,49,51,53,55,-1,57,-1,-1,-1,-1,-1,-1,-1,-1,-1,-1,-1,-1,-1,-1,-1,-1,-1],"loss_changes":[7.869507E0,3.9938354E0,1.489563E0,1.9912567E0,1.6256714E0,6.9122314E-1,1.2951355E0,1.8272095E0,9.6502686E-1,0E0,7.4871826E-1,1.95755E-1,0E0,1.1963997E0,7.6050186E-1,2.199254E-1,9.339752E-1,1.7298126E-1,3.5479736E-1,5.2093506E-1,0E0,0E0,0E0,1.2423756E0,5.7514954E-1,5.4252625E-2,0E0,0E0,0E0,1.0157547E0,4.0076256E-1,0E0,0E0,1.4450073E-1,0E0,0E0,5.143738E-1,1.6200876E-1,1.1039031E-1,2.3292923E-1,0E0,9.410858E-3,0E0,0E0,0E0,0E0,0E0,0E0,0E0,0E0,0E0,0E0,0E0,0E0,0E0,0E0,0E0,0E0,0E0],"parents":[2147483647,0,0,1,1,2,2,3,3,4,4,5,5,6,6,7,7,8,8,10,10,11,11,13,13,14,14,15,15,16,16,17,17,18,18,19,19,23,23,24,24,25,25,29,29,30,30,33,33,36,36,37,37,38,38,39,39,41,41],"right_children":[2,4,6,8,10,12,14,16,18,-1,20,22,-1,24,26,28,30,32,34,36,-1,-1,-1,38,40,42,-1,-1,-1,44,46,-1,-1,48,-1,-1,50,52,54,56,-1,58,-1,-1,-1,-1,-1,-1,-1,-1,-1,-1,-1,-1,-1,-1,-1,-1,-1],"split_conditions":[1.155E1,4.05E-1,4.85E-1,7.55E-2,4.65E-1,1.295E1,6.55E-1,1.9999999E-1,5.85E-1,3.5199307E-2,1.095E2,1.63E-1,2.4880474E-2,5.85E-2,1.135E1,4.1E-1,4.8E1,1.045E1,1.08E2,8.7E0,4.1027375E-2,7.489529E-2,2.964871E-2,9.9366E-1,1.285E1,3.75E1,3.413513E-2,1.0110236E-2,3.812954E-2,9.9393E-1,6.25E0,4.4490915E-2,2.1698257E-2,9.96525E-1,2.084872E-2,7.5679244E-3,6.1499996E0,1.2225E1,6.4E0,1.65E1,1.6693553E-2,4.05E-2,3.1554222E-2,1.1644566E-2,7.679262E-2,8.940685E-3,5.3162564E-2,4.1408684E-2,6.1761666E-2,3.752644E-2,5.330157E-2,1.908189E-2,4.8234325E-2,6.071075E-3,-9.094012E-3,1.3461865E-2,5.8419865E-2,2.283802E-2,7.928286E-2],"split_indices":[10,1,1,4,9,0,9,1,9,0,6,4,0,4,0,2,6,10,6,10,0,0,0,7,10,5,0,0,0,7,0,0,0,7,0,0,0,10,0,6,0,4,0,0,0,0,0,0,0,0,0,0,0,0,0,0,0,0,0],"split_type":[0,0,0,0,0,0,0,0,0,0,0,0,0,0,0,0,0,0,0,0,0,0,0,0,0,0,0,0,0,0,0,0,0,0,0,0,0,0,0,0,0,0,0,0,0,0,0,0,0,0,0,0,0,0,0,0,0,0,0],"sum_hessian":[8.14E2,6.73E2,1.41E2,1.68E2,5.05E2,8.7E1,5.4E1,7.3E1,9.5E1,2.4E1,4.81E2,8.5E1,2E0,3.1E1,2.3E1,5E0,6.8E1,2.5E1,7E1,4.46E2,3.5E1,8.3E1,2E0,9E0,2.2E1,1.9E1,4E0,2E0,3E0,5.4E1,1.4E1,2.1E1,4E0,6.8E1,2E0,1E0,4.45E2,6E0,3E0,2E1,2E0,1.7E1,2E0,1E0,5.3E1,1E0,1.3E1,1E1,5.8E1,1.6E1,4.29E2,3E0,3E0,2E0,1E0,1E0,1.9E1,1E0,1.6E1],"tree_param":{"num_deleted":"0","num_feature":"11","num_nodes":"59","size_leaf_vector":"0"}},{"base_weights":[1.0718275E0,9.9517006E-1,1.2108916E0,1.3113884E0,9.7226346E-1,1.2730786E0,9.276903E-1,1.6113464E0,1.005559E0,1.0171472E0,8.6705667E-1,1.3309509E0,9.9687207E-1,9.7618246E-1,2.4753265E-1,8.1346154E-1,1.7430291E0,5.386043E-1,1.1338567E0,1.2720777E0,9.7941923E-1,7.545583E-1,9.698811E-1,1.2142024E0,1.5104098E0,6.413639E-1,1.0959395E0,1.0127658E0,4.3706304E-1,4.1935048E-1,-6.796042E-3,6.54971E-1,2.03914E-1,8.994803E-1,1.3787141E0,8.9404875E-1,1.0633636E0,7.739556E-1,5.1757493E-3,1.0012649E0,5.085217E-1,1.2926062E0,9.499397E-1,1.5236849E0,2.9721618E-1,7.117607E-1,1.929199E-1,1.1647227E0,4.7780925E-1,1.0264882E0,1.9076502E-1,-8.965063E-2,5.911541E-1,6.403947E-2,-7.423353E-2,2.8086615E-1,1.4068859E0,9.1615516E-1,5.787042E-1,4.5597512E-1,1.0770689E0,5.771671E-1,8.2846963E-1,1.2369883E-1,-1.1593521E-1,7.6087356E-1,1.073087E0,1.386942E-1,9.553936E-1,1.3646722E-1,1.3041934E0,1.0547662E-1,9.745726E-1,3.4659982E-1,1.5358979E0,8.2443064E-1,3.366481E-1,1.1960189E0,1.4421344E-1,8.8982284E-1,1.2753075E0],"categories":[],"categories_nodes":[],"categories_segments":[],"categories_sizes":[],"default_left":[1,1,1,1,1,1,1,1,1,1,1,1,1,1,1,0,0,1,0,1,1,1,1,1,1,1,1,1,1,0,1,0,0,0,1,1,1,1,1,1,1,1,1,1,0,1,0,1,0,1,0,0,0,0,0,0,0,0,0,0,0,0,0,0,0,0,0,0,0,0,0,0,0,0,0,0,0,0,0,0,0],"id":31,"left_children":[1,3,5,7,9,11,13,15,17,19,21,23,25,27,29,-1,-1,31,-1,33,35,37,39,41,43,45,47,49,51,-1,53,-1,-1,-1,55,57,59,61,63,65,67,69,71,73,-1,75,-1,77,-1,79,-1,-1,-1,-1,-1,-1,-1,-1,-1,-1,-1,-1,-1,-1,-1,-1,-1,-1,-1,-1,-1,-1,-1,-1,-1,-1,-1,-1,-1,-1,-1],"loss_changes":[7.4830933E0,2.571289E0,3.8382568E0,1.4069786E0,1.4743652E0,2.3656616E0,1.5723839E0,1.5813065E-1,5.2757645E-1,2.0627136E0,1.0727081E0,2.10495E0,8.4675217E-1,5.63221E-1,2.2134095E-1,0E0,0E0,1.0012305E-1,0E0,3.889084E-1,1.2278748E0,1.1443329E0,6.2021637E-1,1.2377014E0,6.745148E-1,2.4151564E-1,8.465462E-1,3.3433533E-1,4.5880663E-1,0E0,1.9084781E-2,0E0,0E0,0E0,5.327034E-1,5.642929E-1,7.40921E-1,3.478737E-1,5.740438E-2,4.2662048E-1,1.024351E0,1.0142975E0,5.420532E-1,4.5957947E-1,0E0,1.4509583E-1,0E0,7.5372696E-1,0E0,4.2943573E-1,0E0,0E0,0E0,0E0,0E0,0E0,0E0,0E0,0E0,0E0,0E0,0E0,0E0,0E0,0E0,0E0,0E0,0E0,0E0,0E0,0E0,0E0,0E0,0E0,0E0,0E0,0E0,0E0,0E0,0E0,0E0],"parents":[2147483647,0,0,1,1,2,2,3,3,4,4,5,5,6,6,7,7,8,8,9,9,10,10,11,11,12,12,13,13,14,14,17,17,19,19,20,20,21,21,22,22,23,23,24,24,25,25,26,26,27,27,28,28,30,30,34,34,35,35,36,36,37,37,38,38,39,39,40,40,41,41,42,42,43,43,45,45,47,47,49,49],"right_children":[2,4,6,8,10,12,14,16,18,20,22,24,26,28,30,-1,-1,32,-1,34,36,38,40,42,44,46,48,50,52,-1,54,-1,-1,-1,56,58,60,62,64,66,68,70,72,74,-1,76,-1,78,-1,80,-1,-1,-1,-1,-1,-1,-1,-1,-1,-1,-1,-1,-1,-1,-1,-1,-1,-1,-1,-1,-1,-1,-1,-1,-1,-1,-1,-1,-1,-1,-1],"split_conditions":[6.75E-1,3.125E-1,1.00999996E-1,9.9514997E-1,6.525E-1,2.45E1,3.375E0,2.2999999E-1,2.65E-1,2.4999999E-2,1.25E1,1.115E1,7.4E-1,4.25E0,7.5E0,4.0673077E-2,8.715146E-2,1.025E1,5.6692835E-2,6.7E0,5.85E-1,3.545E0,9.7E-1,1.085E1,1.575E1,9.9899995E-1,1.08E2,8.8E-1,4.8499998E-1,2.0967524E-2,9.9E0,3.274855E-2,1.01957E-2,4.4974014E-2,5.65E-2,1.1E1,9.05E0,6.875E-1,6.45E0,9.45E0,1.6E-1,6.05E0,2.1000001E-1,4.5E0,1.4860809E-2,3.3850002E0,9.645995E-3,9.999E-1,2.3890464E-2,2.65E0,9.538251E-3,-4.4825315E-3,2.9557705E-2,3.2019734E-3,-3.7116767E-3,1.4043308E-2,7.034429E-2,4.580776E-2,2.8935209E-2,2.2798756E-2,5.385345E-2,2.8858354E-2,4.142348E-2,6.1849416E-3,-5.7967603E-3,3.8043678E-2,5.365435E-2,6.93471E-3,4.776968E-2,6.823361E-3,6.520967E-2,5.273831E-3,4.872863E-2,1.732999E-2,7.679489E-2,4.1221533E-2,1.6832406E-2,5.980095E-2,7.210672E-3,4.4491142E-2,6.376538E-2],"split_indices":[9,1,4,7,1,5,8,1,1,2,5,10,9,3,0,0,0,10,0,0,9,8,1,10,0,7,6,2,1,0,0,0,0,0,4,0,10,1,0,10,2,0,1,5,0,8,0,7,0,3,0,0,0,0,0,0,0,0,0,0,0,0,0,0,0,0,0,0,0,0,0,0,0,0,0,0,0,0,0,0,0],"split_type":[0,0,0,0,0,0,0,0,0,0,0,0,0,0,0,0,0,0,0,0,0,0,0,0,0,0,0,0,0,0,0,0,0,0,0,0,0,0,0,0,0,0,0,0,0,0,0,0,0,0,0,0,0,0,0,0,0,0,0,0,0,0,0,0,0,0,0,0,0,0,0,0,0,0,0,0,0,0,0,0,0],"sum_hessian":[8.14E2,5.3E2,2.84E2,3.2E1,4.98E2,2.3E2,5.4E1,1.4E1,1.8E1,3.43E2,1.55E2,1.87E2,4.3E1,5E1,4E0,3E0,1.1E1,5E0,1.3E1,4E1,3.03E2,7.8E1,7.7E1,1.18E2,6.9E1,1.1E1,3.2E1,4.6E1,4E0,2E0,2E0,3E0,2E0,1.1E1,2.9E1,1.56E2,1.47E2,7.6E1,2E0,7.1E1,6E0,8.8E1,3E1,6.8E1,1E0,9E0,2E0,2.8E1,4E0,4.5E1,1E0,1E0,3E0,1E0,1E0,1E0,2.8E1,1.44E2,1.2E1,4E0,1.43E2,1.9E1,5.7E1,1E0,1E0,1.9E1,5.2E1,4E0,2E0,1E0,8.7E1,1E0,2.9E1,1E0,6.7E1,6E0,3E0,2.7E1,1E0,3.2E1,1.3E1],"tree_param":{"num_deleted":"0","num_feature":"11","num_nodes":"81","size_leaf_vector":"0"}},{"base_weights":[1.0198094E0,9.467774E-1,1.1523011E0,1.2527118E0,9.246479E-1,1.2111285E0,8.8427526E-1,1.5393006E0,9.6052516E-1,9.671059E-1,8.250954E-1,1.2765036E0,9.8403645E-1,9.301746E-1,2.392476E-1,7.829566E-1,1.6631402E0,5.1883143E-1,1.0812136E0,1.0606915E0,8.779765E-1,7.177251E-1,9.232642E-1,1.4036255E0,1.120565E0,7.949693E-1,1.1447119E0,9.646336E-1,4.2022496E-1,4.0537214E-1,-6.626129E-3,6.304095E-1,1.9711685E-1,1.1152961E0,3.190701E-1,4.185338E-1,1.0825667E0,8.925007E-1,1.8531847E-1,7.361707E-1,5.046288E-3,9.524754E-1,4.909106E-1,6.9030315E-1,1.4279287E0,2.4976563E-1,1.1280473E0,8.517411E-1,2.272104E-1,1.2953494E0,5.077492E-1,7.266217E-1,1.064039E0,-8.740926E-2,5.689858E-1,6.2438488E-2,-7.237768E-2,5.9391594E-1,-1.3281028E-2,1.2958763E0,1.0107495E0,8.9605135E-1,1.3201809E-1,2.113061E-1,4.0683985E-2,1.0611905E0,6.937579E-1,1.206063E-1,-1.1303687E-1,8.468429E-1,1.1284555E0,1.3314648E-1,9.2354727E-1,1.0283971E-1,8.1145906E-1,1.529639E0,1.1647476E0,1.140182E0,4.2439732E-1,8.954803E-1,2.1791394E-1,8.128345E-1,1.5130125E0,8.0328643E-1,3.8196912E-1,1.1819285E0,6.445391E-1],"categories":[],"categories_nodes":[],"categories_segments":[],"categories_sizes":[],"default_left":[1,1,1,1,1,1,1,1,1,1,1,1,1,1,1,0,0,1,1,1,1,1,1,1,1,1,1,1,1,0,1,0,0,0,0,1,1,1,1,1,1,1,1,1,1,0,1,1,0,1,0,1,1,0,0,0,0,0,0,0,0,0,0,0,0,0,0,0,0,0,0,0,0,0,0,0,0,0,0,0,0,0,0,0,0,0,0],"id":32,"left_children":[1,3,5,7,9,11,13,15,17,19,21,23,25,27,29,-1,-1,31,33,35,37,39,41,43,45,47,49,51,53,-1,55,-1,-1,-1,-1,57,59,61,63,65,67,69,71,73,75,-1,77,79,-1,81,-1,83,85,-1,-1,-1,-1,-1,-1,-1,-1,-1,-1,-1,-1,-1,-1,-1,-1,-1,-1,-1,-1,-1,-1,-1,-1,-1,-1,-1,-1,-1,-1,-1,-1,-1,-1],"loss_changes":[6.795105E0,2.436676E0,3.422699E0,1.2848015E0,1.3112183E0,2.1733398E0,1.4058037E0,1.0281372E-1,4.5186996E-1,1.9381104E0,9.816513E-1,1.9160156E0,7.911835E-1,4.9082947E-1,2.0691437E-1,0E0,0E0,9.111333E-2,7.8029633E-3,1.8366241E0,1.6655731E0,1.0348015E0,5.175247E-1,6.2657166E-1,2.6555634E-1,7.412243E-1,2.0289001E0,3.388481E-1,4.2731512E-1,0E0,1.8142471E-2,0E0,0E0,0E0,0E0,5.380161E-1,1.0953369E0,3.623352E-1,1.0196745E-2,3.2523727E-1,5.4570034E-2,3.8279724E-1,9.605061E-1,2.7242327E-1,6.0072327E-1,0E0,2.2481537E-1,5.256634E-1,0E0,1.0807381E0,0E0,1.4235497E-1,7.7129364E-1,0E0,0E0,0E0,0E0,0E0,0E0,0E0,0E0,0E0,0E0,0E0,0E0,0E0,0E0,0E0,0E0,0E0,0E0,0E0,0E0,0E0,0E0,0E0,0E0,0E0,0E0,0E0,0E0,0E0,0E0,0E0,0E0,0E0,0E0],"parents":[2147483647,0,0,1,1,2,2,3,3,4,4,5,5,6,6,7,7,8,8,9,9,10,10,11,11,12,12,13,13,14,14,17,17,18,18,19,19,20,20,21,21,22,22,23,23,24,24,25,25,26,26,27,27,28,28,30,30,35,35,36,36,37,37,38,38,39,39,40,40,41,41,42,42,43,43,44,44,46,46,47,47,49,49,51,51,52,52],"right_children":[2,4,6,8,10,12,14,16,18,20,22,24,26,28,30,-1,-1,32,34,36,38,40,42,44,46,48,50,52,54,-1,56,-1,-1,-1,-1,58,60,62,64,66,68,70,72,74,76,-1,78,80,-1,82,-1,84,86,-1,-1,-1,-1,-1,-1,-1,-1,-1,-1,-1,-1,-1,-1,-1,-1,-1,-1,-1,-1,-1,-1,-1,-1,-1,-1,-1,-1,-1,-1,-1,-1,-1,-1],"split_conditions":[6.75E-1,3.125E-1,1.00999996E-1,9.9514997E-1,6.525E-1,5.35E1,3.375E0,2.2999999E-1,2.65E-1,3.85E1,1.25E1,4.25E-1,7.25E1,4.25E0,7.5E0,3.914783E-2,8.315701E-2,1.025E1,1.225E1,5.2500002E-2,1.155E1,3.545E0,9.7E-1,1.95E-1,1.2E1,7.15E1,1.075E2,9.45E0,4.8499998E-1,2.0268608E-2,9.9E0,3.1520475E-2,9.855843E-3,5.5764806E-2,1.5953505E-2,7.5E0,6.5E-2,6.2E-1,3.6E0,9.15E0,6.45E0,1.035E1,1.6E-1,4.1E-1,9.979E-1,1.2488282E-2,3.6399999E0,9.9985003E-1,1.13605205E-2,7.45E-1,2.538746E-2,9.35E0,5.4499996E-1,-4.370463E-3,2.8449291E-2,3.1219244E-3,-3.6188841E-3,2.9695798E-2,-6.640514E-4,6.479382E-2,5.0537474E-2,4.480257E-2,6.6009047E-3,1.0565305E-2,2.0341992E-3,5.3059526E-2,3.4687895E-2,6.030315E-3,-5.6518437E-3,4.2342145E-2,5.6422777E-2,6.6573243E-3,4.6177365E-2,5.1419856E-3,4.0572952E-2,7.648195E-2,5.823738E-2,5.70091E-2,2.1219866E-2,4.4774015E-2,1.0895697E-2,4.0641725E-2,7.5650625E-2,4.016432E-2,1.9098457E-2,5.9096426E-2,3.2226957E-2],"split_indices":[9,1,4,7,1,6,8,1,1,6,5,1,6,3,0,0,0,10,3,4,0,8,1,1,6,6,6,10,1,0,0,0,0,0,0,0,2,2,3,10,0,10,2,2,7,0,8,7,0,9,0,10,1,0,0,0,0,0,0,0,0,0,0,0,0,0,0,0,0,0,0,0,0,0,0,0,0,0,0,0,0,0,0,0,0,0,0],"split_type":[0,0,0,0,0,0,0,0,0,0,0,0,0,0,0,0,0,0,0,0,0,0,0,0,0,0,0,0,0,0,0,0,0,0,0,0,0,0,0,0,0,0,0,0,0,0,0,0,0,0,0,0,0,0,0,0,0,0,0,0,0,0,0,0,0,0,0,0,0,0,0,0,0,0,0,0,0,0,0,0,0,0,0,0,0,0,0],"sum_hessian":[8.14E2,5.3E2,2.84E2,3.2E1,4.98E2,2.3E2,5.4E1,1.4E1,1.8E1,3.43E2,1.55E2,1.75E2,5.5E1,5E1,4E0,3E0,1.1E1,5E0,1.3E1,1.62E2,1.81E2,7.8E1,7.7E1,9.2E1,8.3E1,2.8E1,2.7E1,4.6E1,4E0,2E0,2E0,3E0,2E0,1.2E1,1E0,6E0,1.56E2,1.77E2,4E0,7.6E1,2E0,7.1E1,6E0,4E0,8.8E1,1E0,8.2E1,2.5E1,3E0,2.1E1,6E0,1.6E1,3E1,1E0,3E0,1E0,1E0,4E0,2E0,3.5E1,1.21E2,1.76E2,1E0,3E0,1E0,6E0,7E1,1E0,1E0,4.8E1,2.3E1,4E0,2E0,1E0,3E0,6E1,2.8E1,8E1,2E0,2.3E1,2E0,8E0,1.3E1,1.2E1,4E0,2.2E1,8E0],"tree_param":{"num_deleted":"0","num_feature":"11","num_nodes":"87","size_leaf_vector":"0"}},{"base_weights":[9.7048485E-1,8.382483E-1,1.0366426E0,7.1047586E-1,8.733045E-1,1.0937643E0,8.5759866E-1,8.1314856E-1,6.051799E-1,7.923792E-1,9.8139876E-1,9.582397E-1,1.1617463E0,1.1276301E-1,8.6795133E-1,6.735697E-1,1.5096939E-1,2.7263966E-1,8.1144524E-1,6.6801465E-1,1.0179673E0,9.039211E-1,1.3542539E0,1.2300656E0,9.6878594E-1,-2.640295E-2,1.9554746E-1,4.4103685E-1,8.9174557E-1,3.046335E-1,7.022188E-1,4.5359072E-1,-1.13738954E-1,5.269302E-1,-1.5729427E-1,8.672235E-1,6.8880093E-1,7.1262103E-1,8.867204E-2,2.4352145E-1,1.0250463E0,9.511302E-1,5.169624E-1,7.169595E-1,1.6012052E0,1.3196998E0,1.0693017E0,1.1445217E0,7.8172755E-1,6.4328414E-1,1.5058222E-1,9.726085E-1,7.711453E-1,4.577767E-1,-7.739806E-2,3.5913882E-1,7.4443465E-1,-1.5811269E-1,9.691119E-3,-2.1020317E-1,-2.573824E-2,5.3416616E-1,8.968109E-1,7.0331204E-1,3.966689E-2,8.006737E-1,3.583604E-1,1.0362701E0,4.102508E-1,9.6397716E-1,1.6303237E-1,-8.406893E-2,6.0882896E-1,-1.1758137E-1,9.073839E-1,8.2468104E-1,1.3479472E0,7.850063E-1,1.1671357E0,3.8924408E-1,1.2537845E0,8.707458E-1,4.7597694E-1,1.7283511E-1,3.0785322E-2,5.684839E-1,1.0221027E0,5.1109785E-1,8.394671E-1],"categories":[],"categories_nodes":[],"categories_segments":[],"categories_sizes":[],"default_left":[1,1,1,1,1,1,1,0,1,1,1,1,1,1,1,1,1,1,1,1,1,1,1,1,1,0,0,1,1,1,1,0,1,0,1,1,1,1,0,0,1,1,1,1,0,1,1,1,1,0,1,1,1,0,0,0,0,0,0,0,0,0,0,0,0,0,0,0,0,0,0,0,0,0,0,0,0,0,0,0,0,0,0,0,0,0,0,0,0],"id":33,"left_children":[1,3,5,7,9,11,13,-1,15,17,19,21,23,25,27,29,31,33,35,37,39,41,43,45,47,-1,-1,49,51,53,55,-1,57,-1,59,61,63,65,-1,-1,67,69,71,73,-1,75,77,79,81,-1,83,85,87,-1,-1,-1,-1,-1,-1,-1,-1,-1,-1,-1,-1,-1,-1,-1,-1,-1,-1,-1,-1,-1,-1,-1,-1,-1,-1,-1,-1,-1,-1,-1,-1,-1,-1,-1,-1],"loss_changes":[6.2610474E0,6.2028503E-1,4.574524E0,2.1061707E-1,1.0855865E0,2.6181335E0,9.4311523E-1,0E0,1.016592E0,1.0372543E0,3.169937E-1,1.8088989E0,2.3017883E0,3.9725363E-2,9.5773315E-1,1.1374092E-1,5.3222924E-1,7.388519E-1,2.3724365E-1,2.4691916E-1,1.6703796E-1,1.8283386E0,1.2127113E0,1.3555603E0,1.5378952E0,0E0,0E0,4.3182564E-1,4.689865E-1,2.694531E-1,1.3818073E-1,0E0,2.3440503E-2,0E0,1.5471198E-2,3.0929565E-1,3.7714958E-1,5.619955E-2,0E0,0E0,9.23996E-2,9.76799E-1,9.346185E-1,1.0601933E0,0E0,5.5236816E-1,1.1420059E0,2.4828186E0,6.4702225E-1,0E0,8.008353E-3,8.390808E-1,5.4813004E-1,0E0,0E0,0E0,0E0,0E0,0E0,0E0,0E0,0E0,0E0,0E0,0E0,0E0,0E0,0E0,0E0,0E0,0E0,0E0,0E0,0E0,0E0,0E0,0E0,0E0,0E0,0E0,0E0,0E0,0E0,0E0,0E0,0E0,0E0,0E0,0E0],"parents":[2147483647,0,0,1,1,2,2,3,3,4,4,5,5,6,6,8,8,9,9,10,10,11,11,12,12,13,13,14,14,15,15,16,16,17,17,18,18,19,19,20,20,21,21,22,22,23,23,24,24,27,27,28,28,29,29,30,30,32,32,34,34,35,35,36,36,37,37,40,40,41,41,42,42,43,43,45,45,46,46,47,47,48,48,50,50,51,51,52,52],"right_children":[2,4,6,8,10,12,14,-1,16,18,20,22,24,26,28,30,32,34,36,38,40,42,44,46,48,-1,-1,50,52,54,56,-1,58,-1,60,62,64,66,-1,-1,68,70,72,74,-1,76,78,80,82,-1,84,86,88,-1,-1,-1,-1,-1,-1,-1,-1,-1,-1,-1,-1,-1,-1,-1,-1,-1,-1,-1,-1,-1,-1,-1,-1,-1,-1,-1,-1,-1,-1,-1,-1,-1,-1,-1,-1],"split_conditions":[9.75E0,5.3499997E-1,6.375E-1,3.255E0,3.315E0,6.15E-1,9.5E0,4.0657427E-2,8.25E0,6.0000002E-2,9.9584997E-1,3.5E0,5.05E1,7.55E0,6.425E-1,9.95735E-1,5.4E-1,3.28E0,1.9E1,8.175E-1,4.5E0,9.977E-1,4E0,4.35E-1,2.25E0,-1.3201475E-3,9.777374E-3,1.025E1,3.4250002E0,6.9E0,4.65E-1,2.2679536E-2,8.15E-1,2.634651E-2,8.200001E0,9.05E0,1.205E1,1.55E1,4.433602E-3,1.2176073E-2,3.63E0,1.275E1,9.97815E-1,8.55E0,8.0060266E-2,2.2999999E-1,4.85E-1,5.15E1,7.65E1,3.216421E-2,3.545E0,5.5E0,3.4650002E0,2.2888836E-2,-3.869903E-3,1.795694E-2,3.7221733E-2,-7.905635E-3,4.8455596E-4,-1.0510159E-2,-1.286912E-3,2.6708309E-2,4.4840544E-2,3.5165604E-2,1.9833446E-3,4.0033687E-2,1.791802E-2,5.181351E-2,2.0512542E-2,4.819886E-2,8.151619E-3,-4.2034467E-3,3.0441448E-2,-5.8790683E-3,4.5369197E-2,4.1234054E-2,6.739736E-2,3.9250314E-2,5.8356788E-2,1.9462204E-2,6.268923E-2,4.353729E-2,2.3798848E-2,8.641756E-3,1.5392661E-3,2.8424194E-2,5.1105138E-2,2.5554894E-2,4.1973356E-2],"split_indices":[10,9,1,8,8,9,6,0,0,2,7,3,6,0,1,7,1,8,5,1,5,7,5,1,3,0,0,10,8,0,9,0,1,0,0,10,0,5,0,0,8,10,7,0,0,1,1,6,6,0,8,5,8,0,0,0,0,0,0,0,0,0,0,0,0,0,0,0,0,0,0,0,0,0,0,0,0,0,0,0,0,0,0,0,0,0,0,0,0],"split_type":[0,0,0,0,0,0,0,0,0,0,0,0,0,0,0,0,0,0,0,0,0,0,0,0,0,0,0,0,0,0,0,0,0,0,0,0,0,0,0,0,0,0,0,0,0,0,0,0,0,0,0,0,0,0,0,0,0,0,0,0,0,0,0,0,0,0,0,0,0,0,0,0,0,0,0,0,0,0,0,0,0,0,0,0,0,0,0,0,0],"sum_hessian":[8.14E2,2.76E2,5.38E2,6.4E1,2.12E2,4.04E2,1.34E2,2.9E1,3.5E1,1.26E2,8.6E1,1.4E2,2.64E2,2E0,1.32E2,3E1,5E0,5E0,1.21E2,1.1E1,7.5E1,1.26E2,1.4E1,1.91E2,7.3E1,1E0,1E0,8E0,1.24E2,3E0,2.7E1,2E0,3E0,3E0,2E0,7.9E1,4.2E1,1E1,1E0,1E0,7.4E1,1.11E2,1.5E1,5E0,9E0,1.18E2,7.3E1,3.5E1,3.8E1,4E0,4E0,7E1,5.4E1,2E0,1E0,4E0,2.3E1,2E0,1E0,1E0,1E0,8E0,7.1E1,4.1E1,1E0,7E0,3E0,7.2E1,2E0,1.09E2,2E0,2E0,1.3E1,1E0,4E0,8E0,1.1E2,2.1E1,5.2E1,5E0,3E1,2.8E1,1E1,3E0,1E0,9E0,6.1E1,1.3E1,4.1E1],"tree_param":{"num_deleted":"0","num_feature":"11","num_nodes":"89","size_leaf_vector":"0"}},{"base_weights":[9.2337894E-1,8.780786E-1,1.1061908E0,1.0076063E0,8.326837E-1,1.2877022E0,1.0293703E0,8.0410916E-1,1.0835702E0,5.5306435E-1,8.4581333E-1,1.3404949E0,4.3784976E-1,8.929899E-1,1.1746341E0,8.5550755E-1,3.7350342E-1,1.2216995E0,9.296837E-1,5.733333E-1,2.1331406E-1,5.2997786E-1,8.5436654E-1,5.531391E-1,1.3893849E0,9.108038E-1,-1.14641905E-1,1.223177E0,2.7419043E-1,1.1067524E0,6.656309E-1,1.4950931E-1,5.0412166E-1,1.2849733E0,4.486185E-1,5.420026E-1,9.9637985E-1,5.951164E-1,2.2974086E-1,-7.068753E-2,3.9065862E-1,7.9380316E-1,9.165671E-1,1.4102151E0,3.1974602E-1,9.2682844E-1,2.8136745E-1,1.3087977E0,8.7881005E-1,-1.048491E-1,4.3548664E-1,1.2129188E0,2.0700295E-1,1.1064029E-1,6.8272126E-1,1.6385521E0,1.0782329E0,5.119333E-1,6.602216E-2,1.0079559E-1,6.2884915E-1,1.0431383E0,1.9787288E-1,6.173354E-1,2.5602397E-1,8.000978E-1,2.2554326E-1,9.462133E-1,6.2407905E-1,1.4532154E0,7.0290995E-1,1.0597092E0,7.541947E-1,4.120171E-1,1.0034084E-2,1.3252918E0,3.492608E-1,1.0153847E0,5.502421E-1],"categories":[],"categories_nodes":[],"categories_segments":[],"categories_sizes":[],"default_left":[1,1,1,1,1,1,1,1,1,1,1,1,0,1,1,1,1,1,1,1,1,0,1,0,1,1,0,1,1,1,1,0,0,1,1,1,1,1,0,0,0,1,1,1,0,1,1,1,1,0,0,0,0,0,0,0,0,0,0,0,0,0,0,0,0,0,0,0,0,0,0,0,0,0,0,0,0,0,0],"id":34,"left_children":[1,3,5,7,9,11,13,15,17,19,21,23,-1,25,27,29,31,33,35,37,39,-1,41,-1,43,45,-1,47,49,51,53,-1,-1,55,57,59,61,63,-1,-1,-1,65,67,69,-1,71,73,75,77,-1,-1,-1,-1,-1,-1,-1,-1,-1,-1,-1,-1,-1,-1,-1,-1,-1,-1,-1,-1,-1,-1,-1,-1,-1,-1,-1,-1,-1,-1],"loss_changes":[5.778076E0,3.0299072E0,8.77594E-1,1.694809E0,1.3421631E0,1.342308E0,1.2491531E0,7.649536E-1,1.3724365E0,4.9859047E-2,8.1417847E-1,7.712326E-1,0E0,1.2532043E0,1.981247E0,1.3146477E0,1.294331E-1,2.3095627E0,1.0113678E0,3.5420895E-2,1.7871313E-1,0E0,9.864502E-1,0E0,3.7348175E-1,3.7467194E-1,0E0,3.240738E-1,2.9021093E-1,1.3728161E0,1.8055916E-1,0E0,0E0,2.1806107E0,1.11545205E-1,3.5810518E-1,1.6604424E0,1.6736984E-4,0E0,0E0,0E0,6.7085266E-1,1.29982E0,7.343292E-2,0E0,6.0009384E-1,1.0221462E-1,1.3853455E-1,2.4654388E-2,0E0,0E0,0E0,0E0,0E0,0E0,0E0,0E0,0E0,0E0,0E0,0E0,0E0,0E0,0E0,0E0,0E0,0E0,0E0,0E0,0E0,0E0,0E0,0E0,0E0,0E0,0E0,0E0,0E0,0E0],"parents":[2147483647,0,0,1,1,2,2,3,3,4,4,5,5,6,6,7,7,8,8,9,9,10,10,11,11,13,13,14,14,15,15,16,16,17,17,18,18,19,19,20,20,22,22,24,24,25,25,27,27,28,28,29,29,30,30,33,33,34,34,35,35,36,36,37,37,41,41,42,42,43,43,45,45,46,46,47,47,48,48],"right_children":[2,4,6,8,10,12,14,16,18,20,22,24,-1,26,28,30,32,34,36,38,40,-1,42,-1,44,46,-1,48,50,52,54,-1,-1,56,58,60,62,64,-1,-1,-1,66,68,70,-1,72,74,76,78,-1,-1,-1,-1,-1,-1,-1,-1,-1,-1,-1,-1,-1,-1,-1,-1,-1,-1,-1,-1,-1,-1,-1,-1,-1,-1,-1,-1,-1,-1],"split_conditions":[1.145E1,4.05E-1,3.245E0,6.15E-1,4.65E-1,1.32E1,6.85E-1,6.05E-1,3.255E0,9.9794E-1,6.1499996E0,3.15E-1,2.1892488E-2,6.1000004E0,1.01E1,7.85E-2,3.5500002E-1,7.05E1,3.295E0,1.0450001E0,1.0200001E1,2.6498893E-2,9.85E0,2.7656956E-2,6.225E-1,1.295E1,-5.7320953E-3,2.2E1,1.06E1,1.135E1,7.5E0,7.4754655E-3,2.5206083E-2,9.9725E-1,1.125E1,2.05E1,9.25E-1,8.700001E0,1.1487043E-2,-3.5343766E-3,1.9532932E-2,1.14E1,7.6E1,1.22E-1,1.5987301E-2,5.65E-1,5.3E0,5.65E-1,3.365E0,-5.2424553E-3,2.1774333E-2,6.0645938E-2,1.0350148E-2,5.5320146E-3,3.4136064E-2,8.1927605E-2,5.3911645E-2,2.5596667E-2,3.301108E-3,5.0397795E-3,3.144246E-2,5.2156914E-2,9.893644E-3,3.086677E-2,1.2801199E-2,4.000489E-2,1.1277163E-2,4.7310665E-2,3.1203954E-2,7.266077E-2,3.51455E-2,5.298546E-2,3.7709735E-2,2.0600855E-2,5.017042E-4,6.626459E-2,1.7463041E-2,5.0769236E-2,2.7512107E-2],"split_indices":[10,1,8,9,9,0,9,9,8,7,0,2,0,3,0,4,1,6,8,1,0,0,10,0,1,10,0,5,0,10,6,0,0,7,0,6,9,0,0,0,0,0,6,4,0,1,0,2,8,0,0,0,0,0,0,0,0,0,0,0,0,0,0,0,0,0,0,0,0,0,0,0,0,0,0,0,0,0,0],"split_type":[0,0,0,0,0,0,0,0,0,0,0,0,0,0,0,0,0,0,0,0,0,0,0,0,0,0,0,0,0,0,0,0,0,0,0,0,0,0,0,0,0,0,0,0,0,0,0,0,0,0,0,0,0,0,0,0,0,0,0,0,0,0,0,0,0,0,0,0,0,0,0,0,0,0,0,0,0,0,0],"sum_hessian":[8.14E2,6.57E2,1.57E2,1.65E2,4.92E2,4.2E1,1.15E2,4.8E1,1.17E2,2.4E1,4.68E2,3.9E1,3E0,6.3E1,5.2E1,4.2E1,6E0,5.8E1,5.9E1,2.2E1,2E0,1.4E1,4.54E2,3E0,3.6E1,6.2E1,1E0,4.9E1,3E0,1.6E1,2.6E1,3E0,3E0,5.3E1,5E0,1E1,4.9E1,2E1,2E0,1E0,1E0,2.37E2,2.17E2,3.5E1,1E0,6E1,2E0,3.7E1,1.2E1,1E0,2E0,1.4E1,2E0,1E0,2.5E1,1.7E1,3.6E1,4E0,1E0,2E0,8E0,4.6E1,3E0,1.8E1,2E0,2.34E2,3E0,1.95E2,2.2E1,3.2E1,3E0,3.1E1,2.9E1,1E0,1E0,3.6E1,1E0,7E0,5E0],"tree_param":{"num_deleted":"0","num_feature":"11","num_nodes":"79","size_leaf_vector":"0"}},{"base_weights":[8.785499E-1,8.136727E-1,9.963437E-1,1.0929832E0,7.935707E-1,1.0500642E0,7.5260216E-1,1.3586708E0,8.257044E-1,8.311736E-1,7.055644E-1,1.096519E0,8.008296E-1,8.0959314E-1,2.461509E-1,6.727886E-1,1.4740757E0,4.3394837E-1,9.34621E-1,1.0675421E0,7.965608E-1,6.0689694E-1,7.9645115E-1,1.0434957E0,1.4407562E0,8.498734E-1,1.4696681E-1,8.4214675E-1,3.5469198E-1,4.18679E-1,1.208508E-2,5.3754234E-1,1.5117359E-1,3.8034233E-1,9.9530554E-1,7.317201E-1,1.1662862E0,7.214489E-1,8.708582E-1,6.247878E-1,-5.4602463E-2,8.228379E-1,4.1126615E-1,4.8418346E-1,1.061006E0,1.5710962E0,4.2886686E-1,5.1539296E-1,9.7156155E-1,6.180115E-1,9.4449687E-1,-1.02227926E-1,4.9447894E-1,-6.856966E-2,1.2702465E-1,1.0375754E0,2.6516843E-1,4.3861246E-1,8.7842375E-1,1.9369292E-1,1.1931448E0,7.770495E-1,6.0420704E-1,9.046488E-1,6.093658E-1,9.483317E-1,5.8408934E-1,7.294917E-2,-1.5485287E-1,6.071787E-1,8.8869345E-1,7.2513625E-2,8.3876497E-1,7.713175E-2,5.391701E-1,1.1714443E0,9.362817E-1,6.012662E-1,1.9332987E-1,9.9638736E-1,1.7545843E-1,6.912495E-1,3.039902E-1,5.917043E-1,1.0507176E0,1.1003017E-3,-1.0395479E-1],"categories":[],"categories_nodes":[],"categories_segments":[],"categories_sizes":[],"default_left":[1,1,1,1,1,1,1,1,1,1,1,1,1,1,1,0,0,1,1,1,1,1,1,1,1,1,0,1,1,0,1,0,0,0,1,1,1,1,1,1,1,1,1,1,1,0,0,1,1,1,1,0,0,1,0,0,0,0,0,0,0,0,0,0,0,0,0,0,0,0,0,0,0,0,0,0,0,0,0,0,0,0,0,0,0,0,0],"id":35,"left_children":[1,3,5,7,9,11,13,15,17,19,21,23,25,27,29,-1,-1,31,33,35,37,39,41,43,45,47,-1,49,51,-1,53,-1,-1,-1,55,57,59,61,63,65,67,69,71,73,75,-1,-1,77,79,81,83,-1,-1,85,-1,-1,-1,-1,-1,-1,-1,-1,-1,-1,-1,-1,-1,-1,-1,-1,-1,-1,-1,-1,-1,-1,-1,-1,-1,-1,-1,-1,-1,-1,-1,-1,-1],"loss_changes":[5.4176636E0,2.1140747E0,2.9414978E0,1.2215576E0,1.0648804E0,1.7964172E0,1.3881893E0,1.955719E-1,4.0512753E-1,1.9640198E0,9.1558075E-1,2.0010834E0,1.157814E0,4.2692566E-1,2.7762073E-1,0E0,0E0,9.450042E-2,9.2350006E-2,5.061836E-1,1.0682373E0,9.690666E-1,4.543686E-1,1.1511993E0,2.3596764E0,1.005249E0,0E0,4.4860458E-1,3.6990678E-1,0E0,4.5791723E-2,0E0,0E0,0E0,9.522247E-2,1.3071251E-1,5.5257416E-1,5.539398E-1,7.564697E-1,4.600067E-1,4.9657695E-2,4.82975E-1,9.528924E-1,1.1508989E-1,1.1622009E0,0E0,0E0,2.1563673E-1,3.3903694E-1,1.8083811E-1,4.6502876E-1,0E0,0E0,7.5102244E-3,0E0,0E0,0E0,0E0,0E0,0E0,0E0,0E0,0E0,0E0,0E0,0E0,0E0,0E0,0E0,0E0,0E0,0E0,0E0,0E0,0E0,0E0,0E0,0E0,0E0,0E0,0E0,0E0,0E0,0E0,0E0,0E0,0E0],"parents":[2147483647,0,0,1,1,2,2,3,3,4,4,5,5,6,6,7,7,8,8,9,9,10,10,11,11,12,12,13,13,14,14,17,17,18,18,19,19,20,20,21,21,22,22,23,23,24,24,25,25,27,27,28,28,30,30,34,34,35,35,36,36,37,37,38,38,39,39,40,40,41,41,42,42,43,43,44,44,47,47,48,48,49,49,50,50,53,53],"right_children":[2,4,6,8,10,12,14,16,18,20,22,24,26,28,30,-1,-1,32,34,36,38,40,42,44,46,48,-1,50,52,-1,54,-1,-1,-1,56,58,60,62,64,66,68,70,72,74,76,-1,-1,78,80,82,84,-1,-1,86,-1,-1,-1,-1,-1,-1,-1,-1,-1,-1,-1,-1,-1,-1,-1,-1,-1,-1,-1,-1,-1,-1,-1,-1,-1,-1,-1,-1,-1,-1,-1,-1,-1],"split_conditions":[6.75E-1,3.125E-1,1.00999996E-1,9.9514997E-1,6.525E-1,2.55E1,3.34E0,2.2999999E-1,2.65E-1,2.4999999E-2,1.25E1,1.245E1,9.9950004E-1,4.25E0,7.5E0,3.363943E-2,7.370379E-2,1.025E1,3.9499998E-1,6.7E0,5.85E-1,3.545E0,9.7E-1,9.94145E-1,1.135E1,2.85E1,7.348341E-3,9.45E0,4.8499998E-1,2.093395E-2,5.95E-1,2.6877118E-2,7.5586797E-3,1.9017117E-2,6.35E-1,1.145E1,5.65E-2,9.9723E-1,8.65E1,9.15E0,6.45E0,9.45E0,1.6E-1,1.85E-1,4.25E-1,7.855481E-2,2.1443343E-2,7.9500005E-2,3.5549998E0,9.35E0,1.07999995E-1,-5.1113963E-3,2.4723947E-2,9.9E0,6.3512325E-3,5.187877E-2,1.3258422E-2,2.1930624E-2,4.3921188E-2,9.6846465E-3,5.9657242E-2,3.8852476E-2,3.0210352E-2,4.523244E-2,3.046829E-2,4.7416586E-2,2.9204467E-2,3.6474585E-3,-7.7426434E-3,3.0358935E-2,4.4434674E-2,3.6256814E-3,4.193825E-2,3.8565875E-3,2.6958505E-2,5.8572214E-2,4.6814084E-2,3.006331E-2,9.666494E-3,4.981937E-2,8.772922E-3,3.4562476E-2,1.5199509E-2,2.9585216E-2,5.253588E-2,5.5015087E-5,-5.1977397E-3],"split_indices":[9,1,4,7,1,5,8,1,1,2,5,10,7,3,0,0,0,10,2,0,9,8,1,7,0,5,0,10,1,0,1,0,0,0,2,10,4,7,6,10,0,10,2,1,1,0,0,4,8,10,4,0,0,0,0,0,0,0,0,0,0,0,0,0,0,0,0,0,0,0,0,0,0,0,0,0,0,0,0,0,0,0,0,0,0,0,0],"split_type":[0,0,0,0,0,0,0,0,0,0,0,0,0,0,0,0,0,0,0,0,0,0,0,0,0,0,0,0,0,0,0,0,0,0,0,0,0,0,0,0,0,0,0,0,0,0,0,0,0,0,0,0,0,0,0,0,0,0,0,0,0,0,0,0,0,0,0,0,0,0,0,0,0,0,0,0,0,0,0,0,0,0,0,0,0,0,0],"sum_hessian":[8.14E2,5.3E2,2.84E2,3.2E1,4.98E2,2.3E2,5.4E1,1.4E1,1.8E1,3.43E2,1.55E2,1.91E2,3.9E1,4.8E1,6E0,3E0,1.1E1,5E0,1.3E1,4E1,3.03E2,7.8E1,7.7E1,1.69E2,2.2E1,3.6E1,3E0,4.4E1,4E0,3E0,3E0,3E0,2E0,2E0,1.1E1,1.1E1,2.9E1,1.56E2,1.47E2,7.6E1,2E0,7.1E1,6E0,6E0,1.63E2,1.9E1,3E0,1.1E1,2.5E1,1.6E1,2.8E1,1E0,3E0,2E0,1E0,1E1,1E0,5E0,6E0,1E0,2.8E1,1.02E2,5.4E1,1.28E2,1.9E1,6E0,7E1,1E0,1E0,1.9E1,5.2E1,4E0,2E0,1E0,5E0,8.2E1,8.1E1,8E0,3E0,2.4E1,1E0,1.2E1,4E0,8E0,2E1,1E0,1E0],"tree_param":{"num_deleted":"0","num_feature":"11","num_nodes":"87","size_leaf_vector":"0"}},{"base_weights":[8.361123E-1,7.944292E-1,1.0044122E0,9.1347754E-1,7.527325E-1,1.1796004E0,9.30813E-1,7.399705E-1,9.883085E-1,4.953788E-1,7.648458E-1,1.2282519E0,3.98185E-1,5.428692E-1,9.662846E-1,8.7760544E-1,5.698317E-1,1.0786662E0,7.365725E-1,5.139105E-1,1.8817616E-1,5.2111834E-1,7.745416E-1,8.3216137E-1,1.349798E0,1.6078782E-1,7.928148E-1,8.2439226E-1,1.1176069E0,4.2155048E-1,9.8282266E-1,1.968418E-1,6.261412E-1,1.2163681E0,8.72751E-1,6.334996E-2,7.5563097E-1,5.339096E-1,2.0261328E-1,-8.352256E-2,3.657868E-1,6.072631E-1,3.0522522E-1,7.1577334E-1,8.351742E-1,9.48526E-1,3.6230052E-1,1.3765028E0,3.0103064E-1,3.56619E-1,-1.5391636E-1,8.404902E-1,2.4909973E-1,1.1410683E0,3.8532797E-1,1.4859056E-1,5.010163E-1,1.0596325E0,3.722701E-1,4.7870874E-2,2.2211683E-1,6.7253417E-1,3.826054E-1,1.5560012E0,1.001836E0,5.626155E-1,1.0445365E0,7.4231386E-2,7.7521706E-1,1.5493405E-1,5.4511166E-1,3.6925882E-1,7.925161E-1,8.979932E-2,3.620673E-1,7.6921487E-1,6.274279E-1,8.6401075E-1,5.5688596E-1,1.4386446E0,6.4399064E-1,9.7644097E-1,6.8024504E-1,3.7910056E-1,-5.450964E-3,1.2377093E0,8.005407E-1],"categories":[],"categories_nodes":[],"categories_segments":[],"categories_sizes":[],"default_left":[1,1,1,1,1,1,1,1,1,1,1,1,0,1,1,1,1,1,1,1,1,1,1,1,1,1,0,1,1,1,1,1,1,1,1,0,1,1,0,0,0,1,1,1,1,0,0,1,0,0,0,1,1,1,0,0,0,0,0,0,0,0,0,0,0,0,0,0,0,0,0,0,0,0,0,0,0,0,0,0,0,0,0,0,0,0,0],"id":36,"left_children":[1,3,5,7,9,11,13,15,17,19,21,23,-1,25,27,29,31,33,35,37,39,41,43,45,47,49,-1,51,53,55,57,59,61,63,65,-1,67,69,-1,-1,-1,71,73,75,77,-1,-1,79,-1,-1,-1,81,83,85,-1,-1,-1,-1,-1,-1,-1,-1,-1,-1,-1,-1,-1,-1,-1,-1,-1,-1,-1,-1,-1,-1,-1,-1,-1,-1,-1,-1,-1,-1,-1,-1,-1],"loss_changes":[4.9195557E0,2.5786438E0,9.3922424E-1,1.4239655E0,1.157959E0,1.1456642E0,1.071701E0,7.644329E-1,1.7758102E0,4.561901E-2,7.046814E-1,8.024788E-1,0E0,1.0185199E0,1.3331604E0,9.29266E-1,4.4382668E-1,1.2351685E0,3.755417E-1,3.5013676E-2,1.7532119E-1,2.0520687E-1,1.0021362E0,3.1245136E-1,3.978424E-1,4.2466283E-1,0E0,3.2777405E-1,3.8497543E-1,7.739055E-2,6.372547E-1,8.193299E-3,2.5463104E-3,1.7928009E0,1.3302917E0,0E0,3.69524E-1,4.6949387E-3,0E0,0E0,0E0,3.2463074E-1,6.544864E-2,6.2687683E-1,1.2442017E0,0E0,0E0,3.4807968E-1,0E0,0E0,0E0,5.5576706E-1,1.0134186E-1,5.229683E-1,0E0,0E0,0E0,0E0,0E0,0E0,0E0,0E0,0E0,0E0,0E0,0E0,0E0,0E0,0E0,0E0,0E0,0E0,0E0,0E0,0E0,0E0,0E0,0E0,0E0,0E0,0E0,0E0,0E0,0E0,0E0,0E0,0E0],"parents":[2147483647,0,0,1,1,2,2,3,3,4,4,5,5,6,6,7,7,8,8,9,9,10,10,11,11,13,13,14,14,15,15,16,16,17,17,18,18,19,19,20,20,21,21,22,22,23,23,24,24,25,25,27,27,28,28,29,29,30,30,31,31,32,32,33,33,34,34,36,36,37,37,41,41,42,42,43,43,44,44,47,47,51,51,52,52,53,53],"right_children":[2,4,6,8,10,12,14,16,18,20,22,24,-1,26,28,30,32,34,36,38,40,42,44,46,48,50,-1,52,54,56,58,60,62,64,66,-1,68,70,-1,-1,-1,72,74,76,78,-1,-1,80,-1,-1,-1,82,84,86,-1,-1,-1,-1,-1,-1,-1,-1,-1,-1,-1,-1,-1,-1,-1,-1,-1,-1,-1,-1,-1,-1,-1,-1,-1,-1,-1,-1,-1,-1,-1,-1,-1],"split_conditions":[1.145E1,4.05E-1,3.245E0,6.25E-1,4.65E-1,1.32E1,5.5E0,4.05E-1,4.8E1,9.9794E-1,6.25E0,4.4E-1,1.9909251E-2,3.29E0,6.85E-1,5.5E0,1.8499999E0,3.255E0,6.3999996E0,1.0450001E0,1.0200001E1,6.35E-1,9.85E0,7.1500003E-1,6.225E-1,4.4E0,3.964074E-2,1.295E1,1.205E-1,1.45E1,3.15E1,8.6E0,9.9950004E-1,9.9725E-1,3.3049998E0,3.1674982E-3,5.0499998E-2,9.5E0,1.0130664E-2,-4.176128E-3,1.828934E-2,5.9000003E-1,1.1E1,1.65E1,7.6E1,4.7426302E-2,1.8115027E-2,1.22E-1,1.5051532E-2,1.7830951E-2,-7.695818E-3,5.65E-1,5.3E0,2.2E1,1.9266399E-2,7.4295285E-3,2.5050817E-2,5.2981626E-2,1.8613506E-2,2.3935437E-3,1.1105842E-2,3.362671E-2,1.913027E-2,7.780006E-2,5.00918E-2,2.8130775E-2,5.2226823E-2,3.7115694E-3,3.8760852E-2,7.7467025E-3,2.7255584E-2,1.8462941E-2,3.9625805E-2,4.489966E-3,1.8103367E-2,3.8460743E-2,3.1371396E-2,4.3200538E-2,2.7844299E-2,7.1932234E-2,3.219953E-2,4.882205E-2,3.4012254E-2,1.8955028E-2,-2.725482E-4,6.1885465E-2,4.0027034E-2],"split_indices":[10,1,8,9,9,0,5,2,6,7,0,2,0,8,9,5,3,8,0,1,0,1,10,9,1,3,0,10,4,6,5,0,7,7,8,0,4,6,0,0,0,9,5,5,6,0,0,4,0,0,0,1,0,5,0,0,0,0,0,0,0,0,0,0,0,0,0,0,0,0,0,0,0,0,0,0,0,0,0,0,0,0,0,0,0,0,0],"split_type":[0,0,0,0,0,0,0,0,0,0,0,0,0,0,0,0,0,0,0,0,0,0,0,0,0,0,0,0,0,0,0,0,0,0,0,0,0,0,0,0,0,0,0,0,0,0,0,0,0,0,0,0,0,0,0,0,0,0,0,0,0,0,0,0,0,0,0,0,0,0,0,0,0,0,0,0,0,0,0,0,0,0,0,0,0,0,0],"sum_hessian":[8.14E2,6.57E2,1.57E2,1.65E2,4.92E2,4.2E1,1.15E2,5.3E1,1.12E2,2.4E1,4.68E2,3.9E1,3E0,1.1E1,1.04E2,2.7E1,2.6E1,8E1,3.2E1,2.2E1,2E0,2E1,4.48E2,1.1E1,2.8E1,5E0,6E0,5.7E1,4.7E1,6E0,2.1E1,4E0,2.2E1,4.5E1,3.5E1,1E0,3.1E1,2E1,2E0,1E0,1E0,1.3E1,7E0,2.34E2,2.14E2,8E0,3E0,2.7E1,1E0,3E0,2E0,5.5E1,2E0,4.5E1,2E0,2E0,4E0,1.8E1,3E0,1E0,3E0,1.7E1,5E0,1.5E1,3E1,1.4E1,2.1E1,1E0,3E1,1E0,1.9E1,7E0,6E0,2E0,5E0,1.41E2,9.3E1,1.92E2,2.2E1,2.4E1,3E0,2.7E1,2.8E1,1E0,1E0,3.3E1,1.2E1],"tree_param":{"num_deleted":"0","num_feature":"11","num_nodes":"87","size_leaf_vector":"0"}},{"base_weights":[7.957572E-1,7.360725E-1,9.04167E-1,9.975484E-1,7.1730536E-1,9.5337737E-1,6.810441E-1,1.2474791E0,7.4773216E-1,7.5222754E-1,6.3569945E-1,1.0079013E0,7.6499194E-1,7.354681E-1,2.027842E-1,6.112915E-1,1.355585E0,3.8636827E-1,8.49193E-1,9.80792E-1,7.1892697E-1,5.413167E-1,7.231422E-1,9.146882E-1,1.1493975E0,5.90976E-1,9.179016E-1,7.646332E-1,3.2588845E-1,3.7774646E-1,-2.2874117E-2,4.8804843E-1,1.22005306E-1,9.0770054E-1,3.3209834E-1,5.093975E-1,1.0321136E0,6.496429E-1,7.8756666E-1,5.5807036E-1,-6.9134235E-2,7.4753255E-1,3.689645E-1,9.874259E-1,6.853822E-1,1.9656491E-1,1.1610324E0,6.4349514E-1,1.018579E-1,1.0493133E0,3.7376457E-1,5.5666447E-1,8.6017925E-1,-9.582448E-2,4.552728E-1,-9.8664604E-2,1.0224867E-1,2.2716284E-1,9.4891644E-1,1.2662115E0,8.046049E-1,7.0183694E-1,5.40086E-1,4.121675E-1,8.06074E-1,8.791102E-1,5.1855844E-1,6.888044E-2,-1.7258179E-1,6.521532E-1,9.111181E-1,4.243798E-2,7.901872E-1,1.4889924E-1,1.0065279E0,7.643533E-1,2.4210541E-1,1.2289664E0,8.5265464E-1,9.359023E-1,5.0897783E-1,1.6561985E-2,1.2476921E-1,6.4039093E-1,1.237241E0,6.2709224E-1,2.6221952E-1,5.8351886E-1,9.968317E-1,-2.5040627E-2,-1.22956276E-1],"categories":[],"categories_nodes":[],"categories_segments":[],"categories_sizes":[],"default_left":[1,1,1,1,1,1,1,1,1,1,1,1,1,1,1,0,0,1,1,1,1,1,1,1,1,1,1,1,1,0,1,0,0,1,0,0,1,1,1,1,1,1,1,1,1,0,1,1,1,1,0,1,1,0,0,1,0,0,0,0,0,0,0,0,0,0,0,0,0,0,0,0,0,0,0,0,0,0,0,0,0,0,0,0,0,0,0,0,0,0,0],"id":37,"left_children":[1,3,5,7,9,11,13,15,17,19,21,23,25,27,29,-1,-1,31,33,35,37,39,41,43,45,47,49,51,53,-1,55,-1,-1,57,-1,-1,59,61,63,65,67,69,71,73,75,-1,77,79,81,83,-1,85,87,-1,-1,89,-1,-1,-1,-1,-1,-1,-1,-1,-1,-1,-1,-1,-1,-1,-1,-1,-1,-1,-1,-1,-1,-1,-1,-1,-1,-1,-1,-1,-1,-1,-1,-1,-1,-1,-1],"loss_changes":[4.607788E0,1.8901978E0,2.480011E0,1.1276283E0,9.438782E-1,1.6016693E0,1.2824421E0,2.0297813E-1,3.6851978E-1,1.9131775E0,8.9603424E-1,1.2699738E0,9.4763184E-1,3.361435E-1,2.8501245E-1,0E0,0E0,1.0173833E-1,1.2210941E-1,4.6614456E-1,9.340668E-1,8.4654045E-1,3.9798737E-1,1.1746368E0,5.034714E-1,6.794081E-1,1.6099701E0,4.1534424E-1,3.1644154E-1,0E0,4.802079E-2,0E0,0E0,1.210289E-1,0E0,0E0,8.985367E-1,5.187073E-1,6.960144E-1,5.208702E-1,5.471935E-2,5.292015E-1,9.2924875E-1,1.163559E0,8.6512756E-1,0E0,3.1381226E-1,5.463257E-1,5.750537E-3,8.983345E-1,0E0,1.8809462E-1,5.147152E-1,0E0,0E0,2.2864472E-3,0E0,0E0,0E0,0E0,0E0,0E0,0E0,0E0,0E0,0E0,0E0,0E0,0E0,0E0,0E0,0E0,0E0,0E0,0E0,0E0,0E0,0E0,0E0,0E0,0E0,0E0,0E0,0E0,0E0,0E0,0E0,0E0,0E0,0E0,0E0],"parents":[2147483647,0,0,1,1,2,2,3,3,4,4,5,5,6,6,7,7,8,8,9,9,10,10,11,11,12,12,13,13,14,14,17,17,18,18,19,19,20,20,21,21,22,22,23,23,24,24,25,25,26,26,27,27,28,28,30,30,33,33,36,36,37,37,38,38,39,39,40,40,41,41,42,42,43,43,44,44,46,46,47,47,48,48,49,49,51,51,52,52,55,55],"right_children":[2,4,6,8,10,12,14,16,18,20,22,24,26,28,30,-1,-1,32,34,36,38,40,42,44,46,48,50,52,54,-1,56,-1,-1,58,-1,-1,60,62,64,66,68,70,72,74,76,-1,78,80,82,84,-1,86,88,-1,-1,90,-1,-1,-1,-1,-1,-1,-1,-1,-1,-1,-1,-1,-1,-1,-1,-1,-1,-1,-1,-1,-1,-1,-1,-1,-1,-1,-1,-1,-1,-1,-1,-1,-1,-1,-1],"split_conditions":[6.75E-1,3.125E-1,1.00999996E-1,9.9514997E-1,6.525E-1,5.35E1,3.34E0,2.2999999E-1,2.65E-1,2.4999999E-2,1.25E1,1.115E1,7.25E1,4.25E0,7.5E0,3.0564576E-2,6.777925E-2,1.025E1,1.135E1,5.7499997E-2,5.85E-1,3.545E0,9.7E-1,1.085E1,4.5E0,7.15E1,1.075E2,9.45E0,4.8499998E-1,1.8887324E-2,5.95E-1,2.4402423E-2,6.1002653E-3,3.9499998E-1,1.6604917E-2,2.5469875E-2,2.55E1,9.9723E-1,5.15E-2,9.15E0,6.45E0,1.035E1,1.6E-1,6.05E0,1.185E1,9.828246E-3,2E1,7.3E-1,8.1E0,7.45E-1,1.868823E-2,9.35E0,3.5000002E-1,-4.791224E-3,2.276364E-2,9.9E0,5.1124333E-3,1.1358142E-2,4.7445823E-2,6.331058E-2,4.0230244E-2,3.5091847E-2,2.70043E-2,2.0608375E-2,4.0303703E-2,4.3955512E-2,2.5927922E-2,3.444022E-3,-8.62909E-3,3.260766E-2,4.5555905E-2,2.121899E-3,3.950936E-2,7.4449624E-3,5.0326396E-2,3.8217664E-2,1.210527E-2,6.1448317E-2,4.2632733E-2,4.6795115E-2,2.5448892E-2,8.2809926E-4,6.2384605E-3,3.2019548E-2,6.186205E-2,3.1354614E-2,1.3110976E-2,2.9175943E-2,4.9841587E-2,-1.2520313E-3,-6.147814E-3],"split_indices":[9,1,4,7,1,6,8,1,1,2,5,10,6,3,0,0,0,10,10,4,9,8,1,10,5,6,6,10,1,0,1,0,0,2,0,0,6,7,4,10,0,10,2,0,0,0,5,9,0,9,0,10,2,0,0,0,0,0,0,0,0,0,0,0,0,0,0,0,0,0,0,0,0,0,0,0,0,0,0,0,0,0,0,0,0,0,0,0,0,0,0],"split_type":[0,0,0,0,0,0,0,0,0,0,0,0,0,0,0,0,0,0,0,0,0,0,0,0,0,0,0,0,0,0,0,0,0,0,0,0,0,0,0,0,0,0,0,0,0,0,0,0,0,0,0,0,0,0,0,0,0,0,0,0,0,0,0,0,0,0,0,0,0,0,0,0,0,0,0,0,0,0,0,0,0,0,0,0,0,0,0,0,0,0,0],"sum_hessian":[8.14E2,5.3E2,2.84E2,3.2E1,4.98E2,2.3E2,5.4E1,1.4E1,1.8E1,3.43E2,1.55E2,1.75E2,5.5E1,4.8E1,6E0,3E0,1.1E1,5E0,1.3E1,4E1,3.03E2,7.8E1,7.7E1,1.1E2,6.5E1,2.8E1,2.7E1,4.4E1,4E0,3E0,3E0,3E0,2E0,1.1E1,2E0,5E0,3.5E1,1.56E2,1.47E2,7.6E1,2E0,7.1E1,6E0,8.1E1,2.9E1,1E0,6.4E1,2.5E1,3E0,2.1E1,6E0,1.6E1,2.8E1,1E0,3E0,2E0,1E0,1E0,1E1,1.5E1,2E1,1.02E2,5.4E1,8E0,1.39E2,6E0,7E1,1E0,1E0,4.8E1,2.3E1,4E0,2E0,2E0,7.9E1,2.4E1,5E0,5E1,1.4E1,6E0,1.9E1,1E0,2E0,8E0,1.3E1,1.2E1,4E0,1.1E1,1.7E1,1E0,1E0],"tree_param":{"num_deleted":"0","num_feature":"11","num_nodes":"91","size_leaf_vector":"0"}},{"base_weights":[7.574573E-1,6.4848584E-1,8.1205404E-1,5.4361445E-1,6.7744434E-1,8.589968E-1,6.652104E-1,6.4402664E-1,4.4483727E-1,3.1307966E-1,6.9385105E-1,7.4880207E-1,9.143873E-1,2.859106E-1,6.8685204E-1,5.473078E-1,8.08892E-1,5.094005E-1,3.7121218E-2,3.9752448E-1,-4.461463E-2,7.500228E-1,5.7885534E-1,6.989695E-1,1.1207979E0,9.61356E-1,7.2612685E-1,4.9366093E-1,2.0978164E-2,3.5812777E-2,6.9698215E-1,1.0074425E0,4.485631E-1,1.9334328E-1,5.363586E-1,3.399116E-1,-1.9925189E-1,-9.189367E-2,2.4971724E-2,8.9271545E-1,6.813236E-1,5.940821E-1,-2.4351001E-1,7.40721E-1,3.6302364E-1,1.3086846E0,4.8328733E-1,1.0030818E0,6.789555E-1,9.71902E-1,5.0374305E-1,5.052936E-2,-4.861331E-2,-9.8564625E-2,1.5228379E-1,1.2362131E-1,7.0530003E-1,1.1094366E0,2.9973292E-1,3.5654005E-1,-1.481235E-1,2.602276E-1,5.715376E-1,-2.4023867E-1,-3.814578E-2,9.293598E-1,3.3057654E-1,1.5551209E-2,6.883153E-1,5.339304E-1,8.4032124E-1,5.789035E-1,8.260113E-1,4.2820352E-1,-3.0733728E-1,6.765593E-1,-1.4490032E-1,6.325954E-1,1.0188817E0,7.376703E-1,-9.536743E-2,6.541531E-1,1.1296105E0,1.0094595E-1,5.576803E-1,7.981586E-1,6.0419416E-1],"categories":[],"categories_nodes":[],"categories_segments":[],"categories_sizes":[],"default_left":[1,1,1,1,1,1,1,1,1,1,1,1,1,1,1,0,1,1,1,0,1,1,1,1,1,1,1,0,1,1,1,1,0,1,1,0,1,0,0,1,1,1,0,1,1,0,1,1,1,1,1,0,0,0,0,0,1,0,0,0,0,0,0,0,0,0,0,0,0,0,0,0,0,0,0,0,0,0,0,0,0,0,0,0,0,0,0],"id":38,"left_children":[1,3,5,7,9,11,13,15,17,19,21,23,25,27,29,-1,31,33,35,-1,37,39,41,43,45,47,49,-1,51,53,55,57,-1,59,61,-1,63,-1,-1,65,67,69,-1,71,73,-1,75,77,79,81,83,-1,-1,-1,-1,-1,85,-1,-1,-1,-1,-1,-1,-1,-1,-1,-1,-1,-1,-1,-1,-1,-1,-1,-1,-1,-1,-1,-1,-1,-1,-1,-1,-1,-1,-1,-1],"loss_changes":[4.3222046E0,4.7296143E-1,3.144043E0,3.582096E-1,1.0560913E0,1.787323E0,9.1178894E-1,3.565502E-2,9.287348E-1,3.4999502E-1,8.7713623E-1,1.8303833E0,1.6451569E0,4.850021E-1,8.1261826E-1,0E0,1.919899E-1,1.60429E-1,4.9715707E-1,0E0,1.2164671E-2,6.955414E-1,1.0337257E0,1.5124359E0,1.1642284E0,1.7816772E0,2.625826E0,0E0,1.2738956E-2,6.1963007E-2,5.089531E-1,2.837658E-2,0E0,2.7571708E-1,1.23262405E-1,0E0,1.724878E-2,0E0,0E0,5.167446E-1,4.2685318E-1,5.881481E-1,0E0,1.0675812E0,8.3070755E-1,0E0,7.050891E-1,4.0911865E-1,1.4342756E0,5.6396675E-1,6.389284E-1,0E0,0E0,0E0,0E0,0E0,6.725502E-1,0E0,0E0,0E0,0E0,0E0,0E0,0E0,0E0,0E0,0E0,